svm_type epsilon_svr
kernel_type linear
nr_class 2
total_sv 12
rho -0.7977158790096514
probA 0.29912221876657813
SV
0.5535730676615723 1:2.0 2:3.0 3:-0.6594549638966677 4:2.0 5:0.2857142857142857 6:0.024691358024691357 
1.0 1:1.0 2:2.0 3:-1.2097062174689837 4:0.125 5:0.14285714285714285 6:0.016666666666666666 
1.0 1:0.0 2:4.0 3:0.7119404680835659 4:0.0 5:0.0 6:0.0 
-1.0 1:1.0 2:3.0 3:-0.2446501727421526 4:0.5 5:0.14285714285714285 6:0.009900990099009901 
-0.13802137301356687 1:2.0 2:7.0 3:2.8198260394605916 4:0.2222222222222222 5:0.2857142857142857 6:0.007017543859649123 
-0.8119407367120006 1:2.0 2:5.0 3:1.4061035879747952 4:0.25 5:0.2857142857142857 6:0.009852216748768473 
-0.9340973510747784 1:1.0 2:2.0 3:-1.2604986408756589 4:0.5 5:0.14285714285714285 6:0.012048192771084338 
0.33048639313877237 1:2.0 2:3.0 3:-0.44781986636885385 4:0.2 5:0.2857142857142857 6:0.02040816326530612 
-1.0 1:1.0 2:3.0 3:-0.6679203677977802 4:1.0 5:0.14285714285714285 6:0.007751937984496124 
-1.0 1:1.0 2:3.0 3:-0.3377696156543907 4:0.5 5:0.14285714285714285 6:0.007462686567164179 
1.0 1:1.0 2:4.0 3:0.7627328914902411 4:1.0 5:0.14285714285714285 6:0.006944444444444444 
1.0 1:2.0 2:3.0 3:-0.2954425961488279 4:1.0 5:0.2857142857142857 6:0.02702702702702703 
