svm_type epsilon_svr
kernel_type linear
nr_class 2
total_sv 329
rho -0.0999000246679446
probA 0.29582888362937315
SV
1.0 1:2.0 2:2.0 3:0.3900261469267577 4:2.0 5:0.16428801936338155 6:-0.7131238789776498 7:0.16428801936338155 8:0.0 9:0.4 10:0.044444444444444446 
1.0 1:2.0 2:2.0 3:1.185474209737908 4:2.0 5:0.16428801936338155 6:-0.7131238789776498 7:0.16428801936338155 8:0.0 9:0.4 10:0.021739130434782608 
1.0 1:2.0 2:1.0 3:-0.6620180651783122 4:2.0 5:0.16428801936338155 6:-0.7131238789776498 7:0.16428801936338155 8:0.0 9:0.4 10:0.09523809523809523 
1.0 1:2.0 2:1.0 3:-0.4952305681372645 4:2.0 5:0.16428801936338155 6:1.6408772749291551 7:0.16428801936338155 8:0.11764705882352941 9:0.4 10:0.06896551724137931 
1.0 1:2.0 2:1.0 3:-0.5080603756019605 4:2.0 5:0.16428801936338155 6:1.6408772749291551 7:0.16428801936338155 8:0.11764705882352941 9:0.4 10:0.06896551724137931 
1.0 1:3.0 2:1.0 3:-0.2129748039139531 4:3.0 5:1.8071682129971955 6:-0.5746532228654848 7:1.8071682129971955 8:3.0 9:0.6 10:0.07692307692307693 
1.0 1:3.0 2:2.0 3:0.8647290231205087 4:3.0 5:1.8071682129971955 6:-0.5746532228654848 7:1.8071682129971955 8:3.0 9:0.6 10:0.0379746835443038 
-1.0 1:2.0 2:3.0 3:1.3394318993142598 4:2.0 5:0.16428801936338155 6:-0.7131238789776498 7:0.16428801936338155 8:0.0 9:0.4 10:0.017857142857142856 
-0.9692346326902183 1:2.0 2:0.0 3:-1.3419978608071987 4:2.0 5:0.16428801936338155 6:1.6408772749291551 7:0.16428801936338155 8:0.11764705882352941 9:0.4 10:0.09523809523809523 
-0.1192008944304973 1:2.0 2:3.0 3:1.9424328501549706 4:2.0 5:0.16428801936338155 6:1.6408772749291551 7:0.16428801936338155 8:0.11764705882352941 9:0.4 10:0.017094017094017096 
-1.0 1:2.0 2:1.0 3:-0.6748478726430082 4:2.0 5:0.16428801936338155 6:-0.7131238789776498 7:0.16428801936338155 8:0.0 9:0.4 10:0.04081632653061224 
-0.5989608559071506 1:1.0 2:1.0 3:-0.9827632517957116 4:1.0 5:-1.4785921742704324 6:-0.7131238789776498 7:-1.4785921742704324 8:0.0 9:0.2 10:0.022222222222222223 
-0.003938882551140454 1:1.0 2:0.0 3:-1.4702959354541585 4:1.0 5:-1.4785921742704324 6:1.6408772749291551 7:-1.4785921742704324 8:0.058823529411764705 9:0.2 10:0.043478260869565216 
-1.0 1:2.0 2:2.0 3:0.8390694081911168 4:2.0 5:0.16428801936338155 6:-0.7131238789776498 7:0.16428801936338155 8:0.0 9:0.4 10:0.025974025974025976 
-0.437713750611174 1:2.0 2:2.0 3:0.8390694081911168 4:2.0 5:0.16428801936338155 6:-0.7131238789776498 7:0.16428801936338155 8:0.0 9:0.4 10:0.025974025974025976 
1.0 1:4.0 2:3.0 3:0.07731004154459209 4:4.0 5:1.4438457513688674 6:0.4235924440626455 7:0.9958203024623158 8:0.36363636363636365 9:0.8 10:0.03418803418803419 
1.0 1:4.0 2:9.0 3:2.6171788415686517 4:4.0 5:1.4438457513688674 6:2.32245512434347 7:0.9958203024623158 8:0.16666666666666666 9:0.8 10:0.012944983818770227 
1.0 1:4.0 2:2.0 3:-0.3192659640731997 4:4.0 5:1.4438457513688674 6:0.2775260840410436 7:0.9958203024623158 8:0.4 9:0.8 10:0.047619047619047616 
-0.7773892164630568 1:1.0 2:4.0 3:0.5496365201455576 4:1.0 5:-1.2633650324477588 6:-0.8910047961317714 7:-1.6019717909176387 8:0.5 9:0.2 10:0.006369426751592357 
-0.9171549356270265 1:2.0 2:0.0 3:-1.1792566279409953 4:2.0 5:-0.36096143784221674 6:-0.7449384361101695 7:-0.7360410931243205 8:0.6666666666666666 9:0.4 10:0.2 
-1.0 1:3.0 2:2.0 3:-0.30144232337127647 4:4.0 5:0.5414421567633253 6:1.2999906041922566 7:0.9958203024623158 8:0.17647058823529413 9:0.6 10:0.034482758620689655 
-0.338474745217509 1:2.0 2:5.0 3:1.1467284836599856 4:3.0 5:-0.36096143784221674 6:0.2775260840410436 7:0.12988960466899765 8:0.2 9:0.4 10:0.008620689655172414 
-0.01379400457788638 1:3.0 2:1.0 3:-0.7915924426741652 4:3.0 5:0.5414421567633253 6:1.1539242441706548 7:0.12988960466899765 8:0.1875 9:0.6 10:0.11538461538461539 
1.0 1:3.0 2:3.0 3:-0.038543623017908875 4:4.0 5:0.5414421567633253 6:0.4235924440626455 7:0.9958203024623158 8:0.2727272727272727 9:0.6 10:0.025423728813559324 
-0.9989589806461716 1:3.0 2:2.0 3:-0.5999883051284904 4:3.0 5:0.5414421567633253 6:1.1539242441706548 7:0.12988960466899765 8:0.1875 9:0.6 10:0.04918032786885246 
-1.0 1:1.0 2:4.0 3:0.6164751727777696 4:2.0 5:-1.2633650324477588 6:-1.0370711561533732 7:-0.7360410931243205 8:1.0 9:0.2 10:0.0058823529411764705 
-0.309426497287294 1:1.0 2:4.0 3:0.518445148917192 4:2.0 5:-1.2633650324477588 6:-0.7449384361101695 7:-0.7360410931243205 8:0.3333333333333333 9:0.2 10:0.006134969325153374 
-1.0 1:3.0 2:3.0 3:0.05057458049170725 4:4.0 5:0.5414421567633253 6:0.4235924440626455 7:0.9958203024623158 8:0.2727272727272727 9:0.6 10:0.024390243902439025 
-0.34177702117474207 1:3.0 2:1.0 3:-0.7604010714457995 4:4.0 5:0.5414421567633253 6:0.4235924440626455 7:0.9958203024623158 8:0.2727272727272727 9:0.6 10:0.05357142857142857 
1.0 1:2.0 2:0.0 3:-1.1748007177655144 4:2.0 5:-0.36096143784221674 6:-1.183137516174975 7:-0.7360410931243205 8:0.0 9:0.4 10:0.2222222222222222 
1.0 1:1.0 2:4.0 3:0.2956496401431516 4:2.0 5:-1.2633650324477588 6:-1.0370711561533732 7:-0.7360410931243205 8:1.0 9:0.2 10:0.0072992700729927005 
-1.0 1:2.0 2:3.0 3:0.5518823624031896 4:2.0 5:-0.49319016121611486 6:0.211999576001272 7:-0.49319016121611486 8:0.6666666666666666 9:0.3333333333333333 10:0.02247191011235955 
1.0 1:4.0 2:1.0 3:-1.0149208552045965 4:4.0 5:2.325039331447398 6:3.17999364001908 7:2.325039331447398 8:0.4 9:0.6666666666666666 10:0.11428571428571428 
-0.49325588696513745 1:2.0 2:1.0 3:-0.3671921507186961 4:2.0 5:-0.49319016121611486 6:0.211999576001272 7:-0.49319016121611486 8:0.6666666666666666 9:0.3333333333333333 10:0.044444444444444446 
1.0 1:3.0 2:1.0 3:-0.4109576037245002 4:3.0 5:0.9159245851156416 6:0.6359987280038161 7:0.9159245851156416 8:0.75 9:0.5 10:0.061224489795918366 
-0.18653210126044484 1:2.0 2:1.0 3:-0.8661183149848626 4:2.0 5:-0.49319016121611486 6:0.211999576001272 7:-0.49319016121611486 8:0.6666666666666666 9:0.3333333333333333 10:0.09090909090909091 
1.0 1:2.0 2:3.0 3:0.6394132684147976 4:2.0 5:-0.49319016121611486 6:-0.211999576001272 7:-0.49319016121611486 8:1.0 9:0.3333333333333333 10:0.021739130434782608 
1.0 1:2.0 2:1.0 3:-0.8223528619790585 4:2.0 5:-0.49319016121611486 6:-0.6359987280038161 7:-0.49319016121611486 8:2.0 9:0.3333333333333333 10:0.09090909090909091 
1.0 1:3.0 2:2.0 3:-0.12210561388619327 4:3.0 5:0.9159245851156416 6:0.6359987280038161 7:0.9159245851156416 8:0.75 9:0.5 10:0.06382978723404255 
-0.8157826057722838 1:2.0 2:1.0 3:-1.1637233954243302 4:2.0 5:-0.49319016121611486 6:-1.05999788000636 7:-0.49319016121611486 8:0.0 9:0.3333333333333333 10:0.10526315789473684 
1.0 1:2.0 2:1.0 3:-1.1112048518173654 4:2.0 5:-0.49319016121611486 6:-1.05999788000636 7:-0.49319016121611486 8:0.0 9:0.3333333333333333 10:0.1 
1.0 1:3.0 2:1.0 3:-0.5685132345453948 4:3.0 5:0.9159245851156416 6:0.6359987280038161 7:0.9159245851156416 8:0.75 9:0.5 10:0.08108108108108109 
1.0 1:2.0 2:1.0 3:-0.7698343183720936 4:2.0 5:-0.49319016121611486 6:-0.6359987280038161 7:-0.49319016121611486 8:2.0 9:0.3333333333333333 10:0.08 
1.0 1:2.0 2:4.0 3:1.532228509733201 4:2.0 5:-0.49319016121611486 6:-1.05999788000636 7:-0.49319016121611486 8:0.0 9:0.3333333333333333 10:0.014184397163120567 
1.0 1:3.0 2:3.0 3:0.9020059864496222 4:3.0 5:0.9159245851156416 6:0.6359987280038161 7:0.9159245851156416 8:0.75 9:0.5 10:0.03571428571428571 
-0.24966984160670516 1:3.0 2:4.0 3:1.5497346909355225 4:3.0 5:0.9159245851156416 6:0.6359987280038161 7:0.9159245851156416 8:0.75 9:0.5 10:0.02097902097902098 
-0.8176563838965353 1:2.0 2:4.0 3:2.2762412108318704 4:2.0 5:-0.49319016121611486 6:-1.05999788000636 7:-0.49319016121611486 8:0.0 9:0.3333333333333333 10:0.012048192771084338 
1.0 1:2.0 2:2.0 3:0.045170230087759375 4:2.0 5:0.5038637736509178 6:-1.3662601021279466 7:0.5038637736509178 8:0.0 9:0.5 10:0.021052631578947368 
-1.0 1:2.0 2:2.0 3:0.148685340705541 4:2.0 5:0.5038637736509178 6:0.19518001458970666 7:0.5038637736509178 8:1.0 9:0.5 10:0.018518518518518517 
-0.44805568216388636 1:2.0 2:1.0 3:-1.0558541283013727 4:2.0 5:0.5038637736509178 6:-1.3662601021279466 7:0.5038637736509178 8:0.0 9:0.5 10:0.046511627906976744 
1.0 1:2.0 2:1.0 3:-0.6794355442367122 4:2.0 5:0.5038637736509178 6:-0.5855400437691199 7:0.5038637736509178 8:2.0 9:0.5 10:0.04081632653061224 
1.0 1:2.0 2:1.0 3:-0.8017715840577269 4:2.0 5:0.5038637736509178 6:-0.5855400437691199 7:0.5038637736509178 8:2.0 9:0.5 10:0.03333333333333333 
-0.10669916417899017 1:1.0 2:3.0 3:1.0520899424607264 4:1.0 5:-1.175682138518808 6:-0.5855400437691199 7:-1.175682138518808 8:1.0 9:0.25 10:0.009615384615384616 
1.0 1:2.0 2:0.0 3:-1.6016610751951306 4:2.0 5:0.5038637736509178 6:0.19518001458970666 7:0.5038637736509178 8:1.0 9:0.5 10:0.11764705882352941 
-0.0969297854419861 1:2.0 2:3.0 3:0.9956271548510273 4:2.0 5:0.5038637736509178 6:0.19518001458970666 7:0.5038637736509178 8:1.0 9:0.5 10:0.01834862385321101 
-1.0 1:2.0 2:1.0 3:-0.5006367168059984 4:2.0 5:0.5038637736509178 6:0.9759000729485332 7:0.5038637736509178 8:0.6666666666666666 9:0.5 10:0.03125 
1.0 1:2.0 2:4.0 3:1.5508445663464017 4:2.0 5:0.5038637736509178 6:1.7566201313073597 7:0.5038637736509178 8:0.5 9:0.5 10:0.016 
-1.0 1:2.0 2:4.0 3:1.4755608495334696 4:2.0 5:0.5038637736509178 6:1.7566201313073597 7:0.5038637736509178 8:0.5 9:0.5 10:0.017391304347826087 
1.0 1:2.0 2:1.0 3:-0.5006367168059984 4:2.0 5:0.5038637736509178 6:0.9759000729485332 7:0.5038637736509178 8:0.6666666666666666 9:0.5 10:0.0425531914893617 
-0.6599180266233677 1:2.0 2:3.0 3:1.268530628297906 4:2.0 5:0.5038637736509178 6:0.9759000729485332 7:0.5038637736509178 8:0.6666666666666666 9:0.5 10:0.019230769230769232 
1.0 1:2.0 2:2.0 3:0.08281208849422543 4:2.0 5:0.5038637736509178 6:0.19518001458970666 7:0.5038637736509178 8:1.0 9:0.5 10:0.028985507246376812 
1.0 1:0.0 2:1.0 3:-1.0746750575046058 4:0.0 5:-2.855228050688534 6:-1.3662601021279466 7:-2.855228050688534 8:0.0 9:0.0 10:0.0 
1.0 1:1.0 2:2.0 3:-0.4065320707898333 4:1.0 5:-1.175682138518808 6:-0.5855400437691199 7:-1.175682138518808 8:1.0 9:0.25 10:0.018867924528301886 
-0.04625710398340506 1:2.0 2:4.0 3:0.5368670114333913 4:2.0 5:-0.7352146220938078 6:-0.2531621171528293 7:-0.7352146220938078 8:2.0 9:0.4 10:0.014814814814814815 
1.0 1:2.0 2:2.0 3:-0.28048802240276843 4:2.0 5:-0.7352146220938078 6:-0.40659370330605926 7:-0.7352146220938078 8:0.0 9:0.4 10:0.024096385542168676 
1.0 1:3.0 2:6.0 3:1.9246064933422669 4:3.0 5:0.7352146220938078 6:-0.2531621171528293 7:0.7352146220938078 8:3.0 9:0.6 10:0.013100436681222707 
1.0 1:3.0 2:4.0 3:0.6074300359372324 4:3.0 5:0.7352146220938078 6:-0.09973053099959943 7:0.7352146220938078 8:1.5 9:0.6 10:0.02158273381294964 
1.0 1:2.0 2:2.0 3:-0.33929054282263604 4:2.0 5:-0.7352146220938078 6:-0.09973053099959943 7:-0.7352146220938078 8:1.0 9:0.4 10:0.021052631578947368 
1.0 1:2.0 2:1.0 3:-0.9155552429373386 4:2.0 5:-0.7352146220938078 6:-0.2531621171528293 7:-0.7352146220938078 8:2.0 9:0.4 10:0.05263157894736842 
1.0 1:2.0 2:3.0 3:0.2898964256699474 4:2.0 5:-0.7352146220938078 6:-0.40659370330605926 7:-0.7352146220938078 8:0.0 9:0.4 10:0.016260162601626018 
1.0 1:4.0 2:5.0 3:1.1484132238000144 4:4.0 5:2.2056438662814233 6:4.196353881290839 7:2.2056438662814233 8:0.13333333333333333 9:0.8 10:0.029197080291970802 
1.0 1:3.0 2:2.0 3:-0.6509439010479343 4:3.0 5:0.7352146220938078 6:-0.2531621171528293 7:0.7352146220938078 8:3.0 9:0.6 10:0.039473684210526314 
-7.351957300801286E-4 1:2.0 2:0.0 3:-1.2860111215825045 4:2.0 5:-0.7352146220938078 6:-0.2531621171528293 7:-0.7352146220938078 8:2.0 9:0.4 10:0.125 
-1.0 1:2.0 2:3.0 3:0.2898964256699474 4:2.0 5:-0.7352146220938078 6:-0.40659370330605926 7:-0.7352146220938078 8:0.0 9:0.4 10:0.0196078431372549 
1.0 1:3.0 2:6.0 3:1.6952766637047831 4:3.0 5:0.7352146220938078 6:-0.40659370330605926 7:0.7352146220938078 8:0.0 9:0.6 10:0.015957446808510637 
-1.0 1:2.0 2:1.0 3:-0.9743577633572063 4:2.0 5:-0.7352146220938078 6:-0.2531621171528293 7:-0.7352146220938078 8:2.0 9:0.4 10:0.09090909090909091 
-0.9339035777565263 1:2.0 2:1.0 3:-1.1566455766587957 4:2.0 5:-0.7352146220938078 6:-0.2531621171528293 7:-0.7352146220938078 8:2.0 9:0.4 10:0.08333333333333333 
1.0 1:3.0 2:2.0 3:-0.5803808765440932 4:3.0 5:0.7352146220938078 6:-0.2531621171528293 7:0.7352146220938078 8:3.0 9:0.6 10:0.06818181818181818 
-1.0 1:3.0 2:1.0 3:-0.6685846571738946 4:3.0 5:0.7352146220938078 6:0.82085898591978 7:0.7352146220938078 8:0.375 9:0.6 10:0.09375 
1.0 1:2.0 2:5.0 3:1.4659468340672996 4:2.0 5:-0.7352146220938078 6:-0.40659370330605926 7:-0.7352146220938078 8:0.0 9:0.4 10:0.012121212121212121 
-1.0 1:2.0 2:2.0 3:-0.27460777036078166 4:2.0 5:-0.7352146220938078 6:-0.2531621171528293 7:-0.7352146220938078 8:2.0 9:0.4 10:0.022988505747126436 
-1.472515685977961E-4 1:4.0 2:2.0 3:-0.5738394803096719 4:4.0 5:1.2403473458920844 6:1.703316633409088 7:1.2403473458920844 8:0.8 9:0.8 10:0.08888888888888889 
-0.002019929064834223 1:3.0 2:2.0 3:-0.3714161467958379 4:3.0 5:0.0 6:-0.9171704949125857 7:0.0 8:0.0 9:0.6 10:0.05555555555555555 
-0.5693162389522066 1:3.0 2:1.0 3:-0.6474479652237934 4:3.0 5:0.0 6:0.13102435641608368 7:0.0 8:1.5 9:0.6 10:0.06521739130434782 
-1.0 1:3.0 2:3.0 3:0.10090496473644144 4:3.0 5:0.0 6:0.13102435641608368 7:0.0 8:1.5 9:0.6 10:0.030612244897959183 
-0.002586445752214956 1:3.0 2:0.0 3:-1.2608520061748056 4:3.0 5:0.0 6:0.13102435641608368 7:0.0 8:1.5 9:0.6 10:0.21428571428571427 
1.0 1:4.0 2:2.0 3:-0.13218857082494317 4:4.0 5:1.2403473458920844 6:0.13102435641608368 7:1.2403473458920844 8:2.0 9:0.8 10:0.05063291139240506 
-0.7724368134090909 1:4.0 2:3.0 3:0.13157516678399203 4:4.0 5:1.2403473458920844 6:2.2274140590734226 7:1.2403473458920844 8:0.6666666666666666 9:0.8 10:0.043478260869565216 
1.0 1:3.0 2:3.0 3:0.11930708596497179 4:3.0 5:0.0 6:-0.9171704949125857 7:0.0 8:0.0 9:0.6 10:0.03896103896103896 
1.0 1:2.0 2:1.0 3:-1.082964834299012 4:2.0 5:-1.2403473458920844 6:-0.9171704949125857 7:-1.2403473458920844 8:0.0 9:0.4 10:0.08 
-0.9692764190809451 1:3.0 2:3.0 3:0.07023476268889083 4:3.0 5:0.0 6:-0.9171704949125857 7:0.0 8:0.0 9:0.6 10:0.037037037037037035 
1.0 1:1.0 2:2.0 3:-0.224199176967595 4:1.0 5:-2.480694691784169 6:-0.9171704949125857 7:-2.480694691784169 8:0.0 9:0.2 10:0.011627906976744186 
-0.02270339216127471 1:4.0 2:1.0 3:-0.6965202884998744 4:4.0 5:1.2403473458920844 6:1.1792192077447532 7:1.2403473458920844 8:1.0 9:0.8 10:0.09090909090909091 
-0.794573769894863 1:3.0 2:5.0 3:1.54240446097132 4:3.0 5:0.0 6:0.13102435641608368 7:0.0 8:1.5 9:0.6 10:0.03260869565217391 
-0.005165147506082641 1:2.0 2:1.0 3:-1.1075009959370525 4:2.0 5:-1.2403473458920844 6:-0.39307306924825103 7:-1.2403473458920844 8:2.0 9:0.4 10:0.05 
1.0 1:3.0 2:1.0 3:-0.6045096823572226 4:3.0 5:0.0 6:-0.39307306924825103 7:0.0 8:3.0 9:0.6 10:0.07142857142857142 
-0.4063723006102961 1:2.0 2:3.0 3:-0.1171632633078745 4:3.0 5:0.10257084643119506 6:-0.2228480674154309 7:0.5059066110320396 8:1.0 9:0.2222222222222222 10:0.02531645569620253 
-1.0 1:2.0 2:1.0 3:-0.36058984920967196 4:3.0 5:0.10257084643119506 6:0.27236986017441556 7:0.5059066110320396 8:0.5 9:0.2222222222222222 10:0.034482758620689655 
-0.3663119107836966 1:2.0 2:2.0 3:-0.18996373759626253 4:3.0 5:0.10257084643119506 6:-0.7180659950052773 7:0.5059066110320396 8:0.0 9:0.2222222222222222 10:0.024691358024691357 
-0.25595004841626057 1:2.0 2:2.0 3:-0.3264646268869901 4:3.0 5:0.10257084643119506 6:0.27236986017441556 7:0.5059066110320396 8:0.5 9:0.2222222222222222 10:0.03225806451612903 
-0.5856069699246786 1:2.0 2:2.0 3:-0.1603885449166049 4:3.0 5:0.10257084643119506 6:0.27236986017441556 7:0.5059066110320396 8:0.5 9:0.2222222222222222 10:0.02702702702702703 
-0.9641615025245439 1:2.0 2:2.0 3:-0.22863898956196865 4:2.0 5:0.10257084643119506 6:0.27236986017441556 7:-0.9395408490595016 8:0.5 9:0.2222222222222222 10:0.02702702702702703 
-0.723311688048452 1:2.0 2:3.0 3:-0.126263322593923 4:2.0 5:0.10257084643119506 6:0.27236986017441556 7:-0.9395408490595016 8:0.5 9:0.2222222222222222 10:0.020202020202020204 
-0.07919312178261612 1:1.0 2:1.0 3:-0.3674148936742084 4:2.0 5:-1.9488460821927043 6:-0.2228480674154309 7:-0.9395408490595016 8:0.5 9:0.1111111111111111 10:0.02127659574468085 
-1.0 1:2.0 2:1.0 3:-0.9900717475056797 4:3.0 5:0.8180128247238179 6:-0.22089298547667877 7:1.0 8:1.0 9:0.6666666666666666 10:0.08 
-0.23355676524833235 1:1.0 2:1.0 3:-0.5055685519177939 4:1.0 5:-0.5453418831492117 6:-0.5890479612711433 7:-1.0 8:1.0 9:0.3333333333333333 10:0.029411764705882353 
-1.0 1:1.0 2:2.0 3:0.7372874715467828 4:2.0 5:-0.5453418831492117 6:-0.22089298547667877 7:0.0 8:0.5 9:0.3333333333333333 10:0.0125 
-0.9824382599839885 1:2.0 2:3.0 3:1.2639213797944848 4:3.0 5:0.8180128247238179 6:0.5154169661122503 7:1.0 8:0.5 9:0.6666666666666666 10:0.020202020202020204 
-1.0 1:2.0 2:1.0 3:-0.8636796095262312 4:3.0 5:0.8180128247238179 6:3.0925017966735022 7:1.0 8:0.18181818181818182 9:0.6666666666666666 10:0.045454545454545456 
-0.059631867146770816 1:1.0 2:2.0 3:0.30544766678366714 4:1.0 5:-0.5453418831492117 6:-0.22089298547667877 7:-1.0 8:0.5 9:0.3333333333333333 10:0.009615384615384616 
-0.043302483535786335 1:1.0 2:1.0 3:-0.7056894370519207 4:1.0 5:-0.5453418831492117 6:-0.9572029370656079 7:-1.0 8:0.0 9:0.3333333333333333 10:0.041666666666666664 
1.0 1:2.0 2:2.0 3:-0.03159803449486212 4:3.0 5:0.8180128247238179 6:-0.22089298547667877 7:1.0 8:1.0 9:0.6666666666666666 10:0.04 
-0.07486176757660083 1:1.0 2:2.0 3:0.41077444843320754 4:2.0 5:-0.5453418831492117 6:-0.5890479612711433 7:0.0 8:1.0 9:0.3333333333333333 10:0.014492753623188406 
-0.8299679454835349 1:1.0 2:2.0 3:0.04213071265981616 4:2.0 5:-0.5453418831492117 6:-0.5890479612711433 7:0.0 8:1.0 9:0.3333333333333333 10:0.014925373134328358 
-0.021123098236339795 1:2.0 2:0.0 3:-1.358715483279071 4:2.0 5:0.8180128247238179 6:-0.5890479612711433 7:0.0 8:2.0 9:0.6666666666666666 10:0.1 
-1.0 1:2.0 2:2.0 3:0.3475783794434833 4:3.0 5:0.8180128247238179 6:0.8835719419067148 7:1.0 8:0.4 9:0.6666666666666666 10:0.034482758620689655 
-1.0 1:2.0 2:3.0 3:1.2428560234645767 4:3.0 5:0.8180128247238179 6:1.2517269177011794 7:1.0 8:0.3333333333333333 9:0.6666666666666666 10:0.018518518518518517 
-0.2721192912247277 1:2.0 2:4.0 3:2.1907970583104404 4:2.0 5:0.8180128247238179 6:1.2517269177011794 7:0.0 8:0.3333333333333333 9:0.6666666666666666 10:0.014285714285714285 
-0.5301061084073639 1:2.0 2:2.0 3:0.558231942742564 4:2.0 5:0.8180128247238179 6:0.5154169661122503 7:0.0 8:0.5 9:0.6666666666666666 10:0.02040816326530612 
-0.06850948512923193 1:2.0 2:0.0 3:-1.2639213797944848 4:3.0 5:0.8180128247238179 6:-0.22089298547667877 7:1.0 8:1.0 9:0.6666666666666666 10:0.08695652173913043 
-1.0 1:2.0 2:1.0 3:-0.6640303238058183 4:3.0 5:1.11448579196041 6:-0.07866972679795545 7:1.0476454436543672 8:0.6666666666666666 9:0.2857142857142857 10:0.11764705882352941 
-0.43239422159888363 1:1.0 2:1.0 3:0.1422378815025062 4:2.0 5:-0.477636767983033 6:-0.22170559370332904 7:-0.6984302957695779 8:0.5 9:0.14285714285714285 10:0.030303030303030304 
-0.7144541467108676 1:1.0 2:1.0 3:0.005324412676564321 4:2.0 5:-0.477636767983033 6:-0.5077773275140762 7:-0.6984302957695779 8:0.0 9:0.14285714285714285 10:0.047619047619047616 
-0.8456599135339906 1:1.0 2:1.0 3:-0.9834950843996827 4:2.0 5:-0.477636767983033 6:-0.5077773275140762 7:-0.6984302957695779 8:0.0 9:0.14285714285714285 10:0.06666666666666667 
-1.0 1:1.0 2:1.0 3:-0.3597781708592807 4:2.0 5:-0.477636767983033 6:-0.5077773275140762 7:-0.6984302957695779 8:0.0 9:0.14285714285714285 10:0.038461538461538464 
-1.0 1:1.0 2:1.0 3:-0.6336051085111645 4:2.0 5:-0.477636767983033 6:-0.22170559370332904 7:-0.6984302957695779 8:0.5 9:0.14285714285714285 10:0.0625 
-1.0 1:1.0 2:1.0 3:-0.8009437926317602 4:2.0 5:-0.477636767983033 6:0.06436614010741813 7:-0.6984302957695779 8:0.25 9:0.14285714285714285 10:0.06666666666666667 
-0.12386181513398815 1:1.0 2:2.0 3:0.9637186944581576 4:2.0 5:-0.477636767983033 6:3.7832986796471313 7:-0.6984302957695779 8:0.03333333333333333 9:0.14285714285714285 10:0.013513513513513514 
-1.0 1:1.0 2:1.0 3:-0.6031798932165108 4:2.0 5:-0.477636767983033 6:-0.5077773275140762 7:-0.6984302957695779 8:0.0 9:0.14285714285714285 10:0.058823529411764705 
-0.11384035220151434 1:1.0 2:1.0 3:-0.20765209438601195 4:2.0 5:-0.477636767983033 6:-0.5077773275140762 7:-0.6984302957695779 8:0.0 9:0.14285714285714285 10:0.02702702702702703 
-0.7854509817284386 1:1.0 2:1.0 3:-0.48147903203789577 4:2.0 5:-0.477636767983033 6:-0.3647414606087026 7:-0.6984302957695779 8:1.0 9:0.14285714285714285 10:0.05 
-0.38931239981614446 1:1.0 2:2.0 3:1.1006321632840994 4:2.0 5:-0.477636767983033 6:-0.5077773275140762 7:-0.6984302957695779 8:0.0 9:0.14285714285714285 10:0.014705882352941176 
-0.13344400411726698 1:2.0 2:3.0 3:2.0894516603603464 4:3.0 5:1.11448579196041 6:-0.22170559370332904 7:1.0476454436543672 8:1.0 9:0.2857142857142857 10:0.024691358024691357 
-0.021003026361328874 1:2.0 2:1.0 3:-1.059558122636317 4:3.0 5:1.11448579196041 6:-0.07866972679795545 7:1.0476454436543672 8:0.6666666666666666 9:0.2857142857142857 10:0.125 
-0.9931946104429508 1:1.0 2:1.0 3:-0.9682824767523558 4:2.0 5:-0.477636767983033 6:-0.5077773275140762 7:-0.6984302957695779 8:0.0 9:0.14285714285714285 10:0.07692307692307693 
-0.9793003592210673 1:1.0 2:1.0 3:-0.8313690079264139 4:2.0 5:-0.477636767983033 6:1.6377606760665275 7:-0.6984302957695779 8:0.06666666666666667 9:0.14285714285714285 10:0.058823529411764705 
-1.0 1:2.0 2:1.0 3:-0.6275631284586565 4:2.0 5:0.3524536884251206 6:0.8001280307281944 7:0.3524536884251206 8:0.6666666666666666 9:0.4 10:0.0425531914893617 
-1.0 1:2.0 2:2.0 3:0.11790579989223243 4:2.0 5:0.3524536884251206 6:-1.1201792430194721 7:0.3524536884251206 8:0.0 9:0.4 10:0.03076923076923077 
-0.9701648980483524 1:1.0 2:1.0 3:-1.2437160182180647 4:1.0 5:-1.4098147537004828 6:-0.48007681843691663 7:-1.4098147537004828 8:1.0 9:0.2 10:0.038461538461538464 
-0.5498093366452427 1:1.0 2:2.0 3:-0.1711535804887245 4:1.0 5:-1.4098147537004828 6:0.16002560614563888 7:-1.4098147537004828 8:0.5 9:0.2 10:0.0136986301369863 
-1.0 1:2.0 2:2.0 3:-0.0798716708947381 4:2.0 5:0.3524536884251206 6:-0.48007681843691663 7:0.3524536884251206 8:2.0 9:0.4 10:0.03278688524590164 
-0.37330300382506576 1:2.0 2:3.0 3:0.39175152867419166 4:2.0 5:0.3524536884251206 6:-1.1201792430194721 7:0.3524536884251206 8:0.0 9:0.4 10:0.024096385542168676 
-1.0 1:2.0 2:2.0 3:-0.2396150126842143 4:2.0 5:0.3524536884251206 6:0.8001280307281944 7:0.3524536884251206 8:0.6666666666666666 9:0.4 10:0.03389830508474576 
-1.0 1:2.0 2:2.0 3:-0.543888044664169 4:2.0 5:0.3524536884251206 6:0.8001280307281944 7:0.3524536884251206 8:0.6666666666666666 9:0.4 10:0.031746031746031744 
-0.432279735063205 1:2.0 2:4.0 3:0.9698702894361055 4:2.0 5:0.3524536884251206 6:0.16002560614563888 7:0.3524536884251206 8:1.0 9:0.4 10:0.024096385542168676 
1.0 1:2.0 2:3.0 3:0.7720928186491349 4:2.0 5:0.3524536884251206 6:-0.48007681843691663 7:0.3524536884251206 8:2.0 9:0.4 10:0.015384615384615385 
-1.0 1:2.0 2:3.0 3:0.5743153478621644 4:2.0 5:0.3524536884251206 6:0.16002560614563888 7:0.3524536884251206 8:1.0 9:0.4 10:0.022222222222222223 
-0.03845140128703685 1:2.0 2:2.0 3:-0.5286743930651713 4:2.0 5:0.3524536884251206 6:0.16002560614563888 7:0.3524536884251206 8:1.0 9:0.4 10:0.03508771929824561 
-1.0 1:2.0 2:1.0 3:-1.000297592634101 4:2.0 5:0.3524536884251206 6:-0.48007681843691663 7:0.3524536884251206 8:2.0 9:0.4 10:0.05 
-1.0 1:2.0 2:1.0 3:-0.7568791670501372 4:2.0 5:0.3524536884251206 6:0.16002560614563888 7:0.3524536884251206 8:1.0 9:0.4 10:0.046511627906976744 
-1.0 1:2.0 2:1.0 3:-0.7949132960476316 4:2.0 5:0.3524536884251206 6:-0.48007681843691663 7:0.3524536884251206 8:2.0 9:0.4 10:0.05263157894736842 
1.0 1:2.0 2:1.0 3:-0.939297218821549 4:2.0 5:-0.25776963111323375 6:1.32189232674413 7:-0.46880723093849536 8:0.5 9:0.2857142857142857 10:0.08 
1.0 1:2.0 2:1.0 3:-0.939297218821549 4:2.0 5:-0.25776963111323375 6:1.32189232674413 7:-0.46880723093849536 8:0.5 9:0.2857142857142857 10:0.08 
1.0 1:2.0 2:1.0 3:-0.939297218821549 4:2.0 5:-0.25776963111323375 6:1.32189232674413 7:-0.46880723093849536 8:0.5 9:0.2857142857142857 10:0.08 
1.0 1:2.0 2:1.0 3:-1.0429828124696878 4:2.0 5:-0.25776963111323375 6:-0.10718045892519967 7:-0.46880723093849536 8:1.0 9:0.2857142857142857 10:0.09090909090909091 
1.0 1:2.0 2:2.0 3:-0.2606278785791855 4:2.0 5:-0.25776963111323375 6:1.32189232674413 7:-0.46880723093849536 8:0.5 9:0.2857142857142857 10:0.06451612903225806 
1.0 1:2.0 2:2.0 3:-0.2606278785791855 4:2.0 5:-0.25776963111323375 6:1.32189232674413 7:-0.46880723093849536 8:0.5 9:0.2857142857142857 10:0.06451612903225806 
1.0 1:2.0 2:3.0 3:0.7573761317843598 4:2.0 5:-0.25776963111323375 6:-1.5362532445945294 7:-0.46880723093849536 8:0.0 9:0.2857142857142857 10:0.016666666666666666 
-0.9225207926622031 1:3.0 2:3.0 3:1.1061367649644633 4:3.0 5:1.0310785244529337 6:0.6073559339094652 7:0.7032108464077432 8:1.0 9:0.42857142857142855 10:0.02564102564102564 
-0.0025565437041843463 1:2.0 2:2.0 3:0.5311530183702386 4:2.0 5:-0.25776963111323375 6:-0.10718045892519967 7:-0.46880723093849536 8:1.0 9:0.2857142857142857 10:0.025 
-0.039362601320458164 1:2.0 2:4.0 3:2.3220859995653647 4:3.0 5:-0.25776963111323375 6:-0.10718045892519967 7:0.7032108464077432 8:1.0 9:0.2857142857142857 10:0.012987012987012988 
-0.2345654041112236 1:2.0 2:3.0 3:1.2758041000250542 4:3.0 5:-0.25776963111323375 6:-0.10718045892519967 7:0.7032108464077432 8:1.0 9:0.2857142857142857 10:0.016666666666666666 
-0.03687913524221673 1:1.0 2:1.0 3:-0.6282404378771325 4:2.0 5:-1.5466177866794013 6:-1.5362532445945294 7:-0.46880723093849536 8:0.0 9:0.14285714285714285 10:0.041666666666666664 
-0.2613611103554446 1:3.0 2:1.0 3:-0.42086925058085467 4:3.0 5:1.0310785244529337 6:-0.10718045892519967 7:0.7032108464077432 8:1.5 9:0.42857142857142855 10:0.0625 
-1.0 1:2.0 2:1.0 3:-1.1560943691767485 4:2.0 5:-0.25776963111323375 6:-0.10718045892519967 7:-0.46880723093849536 8:1.0 9:0.2857142857142857 10:0.09090909090909091 
-1.0 1:3.0 2:2.0 3:-0.006126875988299169 4:3.0 5:1.0310785244529337 6:-0.10718045892519967 7:0.7032108464077432 8:1.5 9:0.42857142857142855 10:0.05 
1.0 1:1.0 2:1.0 3:-1.2597799628248874 4:1.0 5:-1.5466177866794013 6:-0.8217168517598645 7:-1.640825308284734 8:1.0 9:0.14285714285714285 10:0.043478260869565216 
-0.5375397955572883 1:3.0 2:2.0 3:0.23894816354366544 4:4.0 5:1.0310785244529337 6:-0.8217168517598645 7:1.8752289237539819 8:3.0 9:0.42857142857142855 10:0.06382978723404255 
1.0 1:3.0 2:6.0 3:1.0661876173625031 4:3.0 5:1.0162017339941978 6:1.9675733165118798 7:1.0162017339941978 8:0.42857142857142855 9:0.6 10:0.015706806282722512 
-1.0 1:2.0 2:2.0 3:-0.279884509253744 4:2.0 5:-0.43551502885465576 6:-0.6270288591081816 7:-0.43551502885465576 8:2.0 9:0.4 10:0.02197802197802198 
-1.0 1:2.0 2:2.0 3:-0.6779607174298902 4:2.0 5:-0.43551502885465576 6:-0.1945951631715047 7:-0.43551502885465576 8:1.0 9:0.4 10:0.03225806451612903 
-0.3050954363470113 1:3.0 2:3.0 3:0.0894645498787628 4:3.0 5:1.0162017339941978 6:-0.1945951631715047 7:1.0162017339941978 8:1.5 9:0.6 10:0.0234375 
1.0 1:2.0 2:3.0 3:-0.17728754838360322 4:2.0 5:-0.43551502885465576 6:-0.1945951631715047 7:-0.43551502885465576 8:1.0 9:0.4 10:0.020833333333333332 
-1.0 1:2.0 2:2.0 3:-0.4235202544719411 4:2.0 5:-0.43551502885465576 6:-0.6270288591081816 7:-0.43551502885465576 8:2.0 9:0.4 10:0.04 
-1.0 1:3.0 2:1.0 3:-0.7272072586475578 4:3.0 5:1.0162017339941978 6:0.6702722287018491 7:1.0162017339941978 8:0.75 9:0.6 10:0.06818181818181818 
1.0 1:2.0 2:2.0 3:-0.669752960560279 4:2.0 5:-0.43551502885465576 6:-0.6270288591081816 7:-0.43551502885465576 8:2.0 9:0.4 10:0.06896551724137931 
1.0 1:2.0 2:2.0 3:-0.669752960560279 4:2.0 5:-0.43551502885465576 6:-0.6270288591081816 7:-0.43551502885465576 8:2.0 9:0.4 10:0.06896551724137931 
-0.016576018271727028 1:3.0 2:0.0 3:-1.1786338864761772 4:3.0 5:1.0162017339941978 6:-0.1945951631715047 7:1.0162017339941978 8:1.5 9:0.6 10:0.3333333333333333 
-0.11320474660445082 1:3.0 2:0.0 3:-1.1786338864761772 4:3.0 5:1.0162017339941978 6:-0.1945951631715047 7:1.0162017339941978 8:1.5 9:0.6 10:0.3333333333333333 
1.0 1:2.0 2:2.0 3:-0.6574413252558621 4:2.0 5:-0.43551502885465576 6:-0.6270288591081816 7:-0.43551502885465576 8:2.0 9:0.4 10:0.06896551724137931 
-1.0 1:2.0 2:2.0 3:-0.435831889776358 4:2.0 5:-0.43551502885465576 6:-0.1945951631715047 7:-0.43551502885465576 8:1.0 9:0.4 10:0.03636363636363636 
-1.0 1:2.0 2:3.0 3:-0.20601469742724263 4:2.0 5:-0.43551502885465576 6:-0.1945951631715047 7:-0.43551502885465576 8:1.0 9:0.4 10:0.027777777777777776 
-0.039124601365124245 1:3.0 2:3.0 3:0.9256849997890214 4:3.0 5:1.9616271301204784 6:0.8898058829052278 7:2.0 8:3.0 9:0.5 10:0.036585365853658534 
-0.015670745132255054 1:1.0 2:2.0 3:0.792766128024444 4:2.0 5:-2.397544270147252 6:-0.47912624464127646 7:-0.6666666666666666 8:0.0 9:0.16666666666666666 10:0.01098901098901099 
-0.15257167606163244 1:3.0 2:1.0 3:-0.9161907946629801 4:3.0 5:1.9616271301204784 6:3.627670137998236 7:2.0 8:1.0 9:0.5 10:0.11538461538461539 
-0.01583363583450067 1:2.0 2:2.0 3:0.5933878203775779 4:2.0 5:-0.2179585700133867 6:0.8898058829052278 7:-0.6666666666666666 8:2.0 9:0.3333333333333333 10:0.028169014084507043 
-7.2537080123104E-4 1:2.0 2:1.0 3:-0.6883298716379903 4:3.0 5:-0.2179585700133867 6:-0.47912624464127646 7:2.0 8:0.0 9:0.3333333333333333 10:0.05714285714285714 
-0.15039385007374828 1:2.0 2:2.0 3:0.6503530511338252 4:2.0 5:-0.2179585700133867 6:0.8898058829052278 7:-0.6666666666666666 8:2.0 9:0.3333333333333333 10:0.022988505747126436 
-0.944242094902162 1:2.0 2:1.0 3:-0.19463120508384552 4:2.0 5:-0.2179585700133867 6:-0.47912624464127646 7:-0.6666666666666666 8:0.0 9:0.3333333333333333 10:0.0425531914893617 
-1.0 1:2.0 2:1.0 3:-0.19463120508384552 4:2.0 5:-0.2179585700133867 6:-0.47912624464127646 7:-0.6666666666666666 8:0.0 9:0.3333333333333333 10:0.04878048780487805 
-0.0016747506474450978 1:3.0 2:1.0 3:-0.4805642300752597 4:3.0 5:0.0 6:0.30969995318266164 7:-0.1922721423134322 8:0.6 9:0.42857142857142855 10:0.12 
-0.004998836380597158 1:3.0 2:1.0 3:-0.2769353190264208 4:3.0 5:0.0 6:-0.9290998595479848 7:-0.1922721423134322 8:0.0 9:0.42857142857142855 10:0.10344827586206896 
-0.017344130423527622 1:2.0 2:1.0 3:-0.45612876074939906 4:3.0 5:-2.0 6:-0.9290998595479848 7:-0.1922721423134322 8:0.0 9:0.2857142857142857 10:0.05128205128205128 
-0.2979054394508742 1:3.0 2:2.0 3:0.06516125153562843 4:4.0 5:0.0 6:2.539539616097825 7:1.730449280820888 8:0.21428571428571427 9:0.42857142857142855 10:0.05660377358490566 
-0.16446462404435672 1:3.0 2:4.0 3:1.97112785895276 4:3.0 5:0.0 6:0.30969995318266164 7:-0.1922721423134322 8:0.6 9:0.42857142857142855 10:0.023255813953488372 
-0.007878221963867909 1:2.0 2:0.0 3:-1.1077412761056833 4:2.0 5:-2.0 6:-0.18581997190959698 7:-2.1149935654477523 8:0.6666666666666666 9:0.2857142857142857 10:0.15384615384615385 
1.0 1:4.0 2:3.0 3:0.8552414264051232 4:4.0 5:2.0 6:2.539539616097825 7:1.730449280820888 8:0.2857142857142857 9:0.5714285714285714 10:0.044444444444444446 
1.0 1:2.0 2:3.0 3:-0.5139193756684156 4:2.0 5:-0.0669574469987132 6:0.6954080821293682 7:-0.1399594176524683 8:0.25 9:0.4 10:0.023255813953488372 
-2.86037673292212E-4 1:2.0 2:4.0 3:0.5206134113491174 4:2.0 5:-0.0669574469987132 6:-0.04967200586638349 7:-0.1399594176524683 8:0.4 9:0.4 10:0.013888888888888888 
-0.3365870344617607 1:2.0 2:4.0 3:0.5388698722964856 4:2.0 5:-0.0669574469987132 6:1.9372082287889543 7:-0.1399594176524683 8:0.15384615384615385 9:0.4 10:0.015625 
-0.1833070251882166 1:3.0 2:2.0 3:-0.9033905425456045 4:3.0 5:1.2721914929755553 6:1.1921281407932027 7:1.2596347588722134 8:0.3 9:0.6 10:0.046153846153846156 
-0.533843716611427 1:3.0 2:4.0 3:0.45975854152455664 4:3.0 5:1.2721914929755553 6:0.44704805279745097 7:1.2596347588722134 8:0.42857142857142855 9:0.6 10:0.02702702702702703 
-0.06535169630006916 1:2.0 2:4.0 3:0.5023569504017492 4:2.0 5:-0.0669574469987132 6:1.9372082287889543 7:-0.1399594176524683 8:0.15384615384615385 9:0.4 10:0.011764705882352941 
-0.9761191597359963 1:2.0 2:1.0 3:-1.2806907354578814 4:2.0 5:-0.0669574469987132 6:-0.04967200586638349 7:-0.1399594176524683 8:0.4 9:0.4 10:0.03773584905660377 
-0.9995490119009864 1:3.0 2:2.0 3:-0.7269114200543783 4:3.0 5:1.2721914929755553 6:0.19868802346553374 7:1.2596347588722134 8:0.5 9:0.6 10:0.036585365853658534 
-0.5828573976832466 1:2.0 2:1.0 3:-1.737102259142087 4:2.0 5:-0.0669574469987132 6:-0.29803203519830074 7:-0.1399594176524683 8:0.5 9:0.4 10:0.05405405405405406 
-0.10152386177554336 1:2.0 2:3.0 3:-0.11836272180877062 4:2.0 5:-0.0669574469987132 6:-1.0431121231940523 7:-0.1399594176524683 8:2.0 9:0.4 10:0.016260162601626018 
-0.2316751965533911 1:1.0 2:4.0 3:0.4780150024719249 4:1.0 5:-1.4061063869729817 6:-1.0431121231940523 7:-1.53955359417715 8:1.0 9:0.2 10:0.006211180124223602 
-0.9544213336505869 1:2.0 2:5.0 3:1.275213797173671 4:2.0 5:-0.0669574469987132 6:-1.2914721525259696 7:-0.1399594176524683 8:0.0 9:0.4 10:0.010471204188481676 
1.0 1:2.0 2:3.0 3:0.05203091369999953 4:2.0 5:-0.0669574469987132 6:-0.04967200586638349 7:-0.1399594176524683 8:0.4 9:0.4 10:0.014285714285714285 
-1.0 1:1.0 2:2.0 3:-0.415414287019595 4:1.0 5:-0.6731260436656161 6:-0.08942483592094658 7:-0.9400420150616429 8:1.0 9:0.2 10:0.010638297872340425 
-0.9868775288246919 1:1.0 2:3.0 3:-0.27103153520318873 4:2.0 5:-0.6731260436656161 6:0.8048235232885185 7:0.40287514931213275 8:0.5 9:0.2 10:0.009174311926605505 
-1.0 1:2.0 2:3.0 3:-0.20825642571779474 4:2.0 5:0.5507394902718676 6:-0.08942483592094658 7:0.40287514931213275 8:2.0 9:0.4 10:0.01904761904761905 
-0.18612841928954432 1:2.0 2:3.0 3:-0.1486200717066704 4:2.0 5:0.5507394902718676 6:-0.08942483592094658 7:0.40287514931213275 8:2.0 9:0.4 10:0.023809523809523808 
-0.08798601569907728 1:2.0 2:5.0 3:0.3975233808162576 4:2.0 5:0.5507394902718676 6:0.8048235232885185 7:0.40287514931213275 8:1.0 9:0.4 10:0.013605442176870748 
-0.0783533190714543 1:2.0 2:3.0 3:-0.3149741118429646 4:2.0 5:0.5507394902718676 6:-0.9836731951304116 7:0.40287514931213275 8:0.0 9:0.4 10:0.018691588785046728 
-1.0 1:2.0 2:3.0 3:-0.06701242937565818 4:2.0 5:0.5507394902718676 6:-0.08942483592094658 7:0.40287514931213275 8:2.0 9:0.4 10:0.017241379310344827 
-0.9553752441096712 1:3.0 2:5.0 3:0.35358080417648174 4:3.0 5:1.7746050242093514 6:1.6990718824979834 7:1.7457923136859084 8:1.0 9:0.6 10:0.018072289156626505 
-0.17832908228871924 1:1.0 2:3.0 3:-0.33066788921431306 4:2.0 5:-0.6731260436656161 6:-0.08942483592094658 7:0.40287514931213275 8:1.0 9:0.2 10:0.0136986301369863 
-0.16866207631273833 1:1.0 2:3.0 3:-0.0858449622212764 4:1.0 5:-0.6731260436656161 6:-0.08942483592094658 7:-0.9400420150616429 8:1.0 9:0.2 10:0.010526315789473684 
-0.8676643571437861 1:2.0 2:2.0 3:-0.4122755315453253 4:2.0 5:0.5507394902718676 6:0.8048235232885185 7:0.40287514931213275 8:1.0 9:0.4 10:0.02247191011235955 
-0.5647051617111707 1:0.0 2:3.0 3:-0.3275291337400434 4:1.0 5:-1.8969915776030999 6:-0.9836731951304116 7:-0.9400420150616429 8:0.0 9:0.0 10:0.0 
1.0 1:0.0 2:2.0 3:0.32758449672458384 4:2.0 5:-1.6151457061744965 6:-0.22911446554115697 7:-0.37662178857735457 8:0.0 9:0.0 10:0.0 
1.0 1:0.0 2:1.0 3:-0.34952795583532154 4:2.0 5:-1.6151457061744965 6:-0.22911446554115697 7:-0.37662178857735457 8:0.0 9:0.0 10:0.0 
1.0 1:0.0 2:2.0 3:-0.004702169809443787 4:2.0 5:-1.6151457061744965 6:-0.22911446554115697 7:-0.37662178857735457 8:0.0 9:0.0 10:0.0 
1.0 1:1.0 2:1.0 3:-0.4310322325323472 4:2.0 5:0.5383819020581655 6:-0.22911446554115697 7:-0.37662178857735457 8:0.0 9:0.25 10:0.037037037037037035 
1.0 1:0.0 2:1.0 3:-0.3119105973597712 4:2.0 5:-1.6151457061744965 6:-0.22911446554115697 7:-0.37662178857735457 8:0.0 9:0.0 10:0.0 
1.0 1:1.0 2:2.0 3:0.11441946536313216 4:2.0 5:0.5383819020581655 6:-0.22911446554115697 7:-0.37662178857735457 8:0.0 9:0.25 10:0.015873015873015872 
1.0 1:1.0 2:3.0 3:0.9608100310630139 4:2.0 5:0.5383819020581655 6:-0.22911446554115697 7:-0.37662178857735457 8:0.0 9:0.25 10:0.00980392156862745 
-1.0 1:1.0 2:2.0 3:0.4592452513890099 4:2.0 5:0.5383819020581655 6:-0.22911446554115697 7:-0.37662178857735457 8:0.0 9:0.25 10:0.011235955056179775 
-0.9641791663468131 1:0.0 2:2.0 3:0.095610786125357 4:2.0 5:-1.6151457061744965 6:-0.22911446554115697 7:-0.37662178857735457 8:0.0 9:0.0 10:0.0 
1.0 1:0.0 2:1.0 3:-0.35579751558124656 4:2.0 5:-1.6151457061744965 6:-0.22911446554115697 7:-0.37662178857735457 8:0.0 9:0.0 10:0.0 
-0.9685724801128046 1:1.0 2:1.0 3:-0.663005943131574 4:2.0 5:0.5383819020581655 6:-0.22911446554115697 7:-0.37662178857735457 8:0.0 9:0.25 10:0.07142857142857142 
1.0 1:1.0 2:2.0 3:-0.09874556599831953 4:3.0 5:0.5383819020581655 6:4.353174845281981 7:2.1341901352716772 8:0.09090909090909091 9:0.25 10:0.018518518518518517 
1.0 1:1.0 2:2.0 3:-0.05485864777684418 4:2.0 5:0.5383819020581655 6:-0.22911446554115697 7:-0.37662178857735457 8:0.0 9:0.25 10:0.02040816326530612 
1.0 1:1.0 2:0.0 3:-0.9639448109359764 4:2.0 5:0.5383819020581655 6:-0.22911446554115697 7:-0.37662178857735457 8:0.0 9:0.25 10:0.09090909090909091 
-0.9977924799364695 1:1.0 2:0.0 3:-0.9639448109359764 4:2.0 5:0.5383819020581655 6:-0.22911446554115697 7:-0.37662178857735457 8:0.0 9:0.25 10:0.09090909090909091 
1.0 1:1.0 2:0.0 3:-0.9639448109359764 4:2.0 5:0.5383819020581655 6:-0.22911446554115697 7:-0.37662178857735457 8:0.0 9:0.25 10:0.09090909090909091 
-1.0 1:1.0 2:0.0 3:-0.9639448109359764 4:2.0 5:0.5383819020581655 6:-0.22911446554115697 7:-0.37662178857735457 8:0.0 9:0.25 10:0.09090909090909091 
1.0 1:1.0 2:0.0 3:-0.9639448109359764 4:2.0 5:0.5383819020581655 6:-0.22911446554115697 7:-0.37662178857735457 8:0.0 9:0.25 10:0.09090909090909091 
1.0 1:1.0 2:3.0 3:0.5094017293564103 4:1.0 5:0.5383819020581655 6:-0.22911446554115697 7:-2.8874337124263865 8:0.0 9:0.25 10:0.011235955056179775 
1.0 1:1.0 2:1.0 3:-0.33071927659754635 4:3.0 5:0.5383819020581655 6:-0.22911446554115697 7:2.1341901352716772 8:0.0 9:0.25 10:0.017543859649122806 
1.0 1:2.0 2:1.0 3:-0.9458007180528338 4:2.0 5:0.6580572120312451 6:-0.39073233258228174 7:0.19387143908389864 8:0.0 9:0.3333333333333333 10:0.043478260869565216 
-1.0 1:2.0 2:3.0 3:0.09099975362968897 4:3.0 5:0.6580572120312451 6:-0.39073233258228174 7:1.4863476996432237 8:0.0 9:0.3333333333333333 10:0.0196078431372549 
-0.3478064762290488 1:2.0 2:2.0 3:-0.45350696890861436 4:2.0 5:0.6580572120312451 6:-0.39073233258228174 7:0.19387143908389864 8:0.0 9:0.3333333333333333 10:0.030303030303030304 
-0.07421774605833303 1:2.0 2:4.0 3:0.8443583697443279 4:3.0 5:0.6580572120312451 6:-0.39073233258228174 7:1.4863476996432237 8:0.0 9:0.3333333333333333 10:0.017543859649122806 
-0.5383729849610288 1:2.0 2:1.0 3:-1.0875216458367758 4:2.0 5:0.6580572120312451 6:1.562929330329127 7:0.19387143908389864 8:2.0 9:0.3333333333333333 10:0.046511627906976744 
-0.18191070326210468 1:2.0 2:3.0 3:0.3147696396043342 4:2.0 5:0.6580572120312451 6:1.562929330329127 7:0.19387143908389864 8:2.0 9:0.3333333333333333 10:0.020202020202020204 
-0.9932127645496113 1:1.0 2:2.0 3:-0.6772768548832596 4:2.0 5:-0.8042921480381886 6:-0.39073233258228174 7:0.19387143908389864 8:0.0 9:0.16666666666666666 10:0.015151515151515152 
-1.0 1:1.0 2:2.0 3:-0.4609659651077692 4:2.0 5:-0.8042921480381886 6:-0.39073233258228174 7:0.19387143908389864 8:0.0 9:0.16666666666666666 10:0.01818181818181818 
-0.617130652908968 1:2.0 2:2.0 3:-0.028344185556788477 4:3.0 5:0.6580572120312451 6:-0.39073233258228174 7:1.4863476996432237 8:0.0 9:0.3333333333333333 10:0.017699115044247787 
-0.11586944470878582 1:2.0 2:2.0 3:-0.18498310573904012 4:2.0 5:0.6580572120312451 6:3.5165909932405355 7:0.19387143908389864 8:1.0 9:0.3333333333333333 10:0.01818181818181818 
-0.13612113950769078 1:2.0 2:2.0 3:-0.24465507533227884 4:2.0 5:0.6580572120312451 6:-0.39073233258228174 7:0.19387143908389864 8:0.0 9:0.3333333333333333 10:0.03076923076923077 
1.0 1:2.0 2:1.0 3:-0.751532585210156 4:2.0 5:1.6889407612820462 6:-0.5725983343138682 7:1.2130085101830763 8:0.0 9:0.4 10:0.08333333333333333 
-0.0346065871613908 1:1.0 2:2.0 3:0.045865371175569804 4:1.0 5:0.22029662103678868 6:-0.5725983343138682 7:-0.13477872335367527 8:0.0 9:0.2 10:0.010309278350515464 
-0.001847794004513649 1:1.0 2:4.0 3:1.2449600424323004 4:1.0 5:0.22029662103678868 6:1.7177950029416047 7:-0.13477872335367527 8:1.0 9:0.2 10:0.007407407407407408 
-0.617288000194736 1:0.0 2:3.0 3:0.17177031165752651 4:0.0 5:-1.248347519208469 6:-0.5725983343138682 7:-1.4825659568904268 8:0.0 9:0.0 10:0.0 
-0.3522651370994158 1:1.0 2:4.0 3:1.0531048950312234 4:2.0 5:0.22029662103678868 6:-0.5725983343138682 7:1.2130085101830763 8:0.0 9:0.2 10:0.008064516129032258 
-6.814300294823226E-5 1:2.0 2:0.0 3:-1.093274566518324 4:2.0 5:1.6889407612820462 6:1.7177950029416047 7:1.2130085101830763 8:2.0 9:0.4 10:0.13333333333333333 
-0.594752596711014 1:1.0 2:1.0 3:-0.769519005279007 4:2.0 5:0.22029662103678868 6:1.7177950029416047 7:1.2130085101830763 8:1.0 9:0.2 10:0.025 
1.0 1:0.0 2:3.0 3:0.38161187912745437 4:0.0 5:-1.248347519208469 6:-0.5725983343138682 7:-1.4825659568904268 8:0.0 9:0.0 10:0.0 
-0.3264531448532342 1:0.0 2:1.0 3:-0.8954239457609636 4:1.0 5:-1.248347519208469 6:-0.5725983343138682 7:-0.13477872335367527 8:0.0 9:0.0 10:0.0 
-0.0612676182224703 1:1.0 2:4.0 3:1.0231275282498051 4:1.0 5:0.22029662103678868 6:1.7177950029416047 7:-0.13477872335367527 8:1.0 9:0.2 10:0.006802721088435374 
1.0 1:1.0 2:1.0 3:-0.9433877326112329 4:2.0 5:0.22029662103678868 6:-0.5725983343138682 7:1.2130085101830763 8:0.0 9:0.2 10:0.03333333333333333 
-1.0 1:1.0 2:1.0 3:-0.8774375256921126 4:1.0 5:0.22029662103678868 6:-0.5725983343138682 7:-0.13477872335367527 8:0.0 9:0.2 10:0.04 
-0.9998473755188895 1:0.0 2:1.0 3:-0.5776638578779301 4:1.0 5:-1.248347519208469 6:-0.5725983343138682 7:-0.13477872335367527 8:0.0 9:0.0 10:0.0 
-0.7109594905742429 1:1.0 2:2.0 3:-0.4217815506145551 4:1.0 5:0.22029662103678868 6:-0.5725983343138682 7:-0.13477872335367527 8:0.0 9:0.2 10:0.022727272727272728 
-0.08160868521258077 1:2.0 2:3.0 3:0.3636254590586034 4:2.0 5:1.6889407612820462 6:-0.5725983343138682 7:1.2130085101830763 8:0.0 9:0.4 10:0.0196078431372549 
1.0 1:3.0 2:2.0 3:-0.09400492128644744 4:3.0 5:0.8257228238447705 6:-0.22911446554115686 7:0.6834407765979231 8:0.0 9:0.5 10:0.06521739130434782 
1.0 1:3.0 2:1.0 3:-0.2790146067970088 4:3.0 5:0.8257228238447705 6:-0.22911446554115686 7:0.6834407765979231 8:0.0 9:0.5 10:0.05555555555555555 
-0.12501127610064244 1:3.0 2:2.0 3:-0.12900675368033743 4:4.0 5:0.8257228238447705 6:-0.22911446554115686 7:1.9260603704123294 8:0.0 9:0.5 10:0.06818181818181818 
-0.07340441686971522 1:2.0 2:0.0 3:-0.9890517782159199 4:2.0 5:-0.5504818825631801 6:-0.22911446554115686 7:-0.559178817216483 8:0.0 9:0.3333333333333333 10:0.25 
-0.7211196044928686 1:2.0 2:3.0 3:0.6860359149202436 4:2.0 5:-0.5504818825631801 6:-0.22911446554115686 7:-0.559178817216483 8:0.0 9:0.3333333333333333 10:0.01639344262295082 
-0.512697903326137 1:2.0 2:0.0 3:-1.1290591077914798 4:2.0 5:-0.5504818825631801 6:-0.22911446554115686 7:-0.559178817216483 8:0.0 9:0.3333333333333333 10:0.5 
-0.58453232000523 1:2.0 2:3.0 3:0.5110267529507937 4:2.0 5:-0.5504818825631801 6:-0.22911446554115686 7:-0.559178817216483 8:0.0 9:0.3333333333333333 10:0.01652892561983471 
-0.001483971811459944 1:2.0 2:0.0 3:-0.7640399985409129 4:2.0 5:-0.5504818825631801 6:-0.22911446554115686 7:-0.559178817216483 8:0.0 9:0.3333333333333333 10:0.08333333333333333 
-0.19120402451665508 1:3.0 2:3.0 3:0.7060369620024665 4:3.0 5:0.8257228238447705 6:-0.22911446554115686 7:0.6834407765979231 8:0.0 9:0.5 10:0.02912621359223301 
-1.0 1:2.0 2:2.0 3:-0.0790041359747803 4:2.0 5:-0.5504818825631801 6:-0.22911446554115686 7:-0.559178817216483 8:0.0 9:0.3333333333333333 10:0.05263157894736842 
-1.0 1:3.0 2:2.0 3:-0.019000994728111762 4:3.0 5:0.8257228238447705 6:-0.22911446554115686 7:0.6834407765979231 8:0.0 9:0.5 10:0.06818181818181818 
-0.8807869405471713 1:2.0 2:1.0 3:-0.7190376426059114 4:2.0 5:-0.5504818825631801 6:-0.22911446554115686 7:-0.559178817216483 8:0.0 9:0.3333333333333333 10:0.09090909090909091 
1.0 1:0.0 2:2.0 3:0.02385806028597537 4:1.0 5:-2.1645482913637393 6:-0.6277029809622579 7:-1.0200306013770688 8:0.0 9:0.0 10:0.0 
-1.0 1:1.0 2:1.0 3:-0.25025582385076356 4:2.0 5:0.11392359428230218 6:-0.6277029809622579 7:0.34001020045902297 8:0.0 9:0.16666666666666666 10:0.01694915254237288 
1.0 1:1.0 2:2.0 3:0.6431523911134226 4:2.0 5:0.11392359428230218 6:-0.6277029809622579 7:0.34001020045902297 8:0.0 9:0.16666666666666666 10:0.013513513513513514 
1.0 1:1.0 2:1.0 3:-0.5548268062249179 4:2.0 5:0.11392359428230218 6:-0.6277029809622579 7:0.34001020045902297 8:0.0 9:0.16666666666666666 10:0.025 
1.0 1:1.0 2:1.0 3:-0.9406167172321801 4:2.0 5:0.11392359428230218 6:-0.6277029809622579 7:0.34001020045902297 8:0.0 9:0.16666666666666666 10:0.043478260869565216 
1.0 1:1.0 2:1.0 3:-0.9406167172321801 4:2.0 5:0.11392359428230218 6:-0.6277029809622579 7:0.34001020045902297 8:0.0 9:0.16666666666666666 10:0.043478260869565216 
1.0 1:1.0 2:1.0 3:-0.9406167172321801 4:2.0 5:0.11392359428230218 6:-0.6277029809622579 7:0.34001020045902297 8:0.0 9:0.16666666666666666 10:0.043478260869565216 
1.0 1:1.0 2:1.0 3:-0.9406167172321801 4:2.0 5:0.11392359428230218 6:-0.6277029809622579 7:0.34001020045902297 8:0.0 9:0.16666666666666666 10:0.043478260869565216 
1.0 1:1.0 2:1.0 3:-0.9406167172321801 4:2.0 5:0.11392359428230218 6:-0.6277029809622579 7:0.34001020045902297 8:0.0 9:0.16666666666666666 10:0.043478260869565216 
1.0 1:1.0 2:2.0 3:0.15583881931477558 4:3.0 5:0.11392359428230218 6:1.3809465581169673 7:1.7000510022951147 8:0.25 9:0.16666666666666666 10:0.020833333333333332 
1.0 1:0.0 2:1.0 3:-0.15888452913851725 4:0.0 5:-2.1645482913637393 6:-0.6277029809622579 7:-2.3800714032131607 8:0.0 9:0.0 10:0.0 
-0.005840219808524396 1:1.0 2:4.0 3:2.6025590443871494 4:2.0 5:0.11392359428230218 6:1.3809465581169673 7:0.34001020045902297 8:0.25 9:0.16666666666666666 10:0.007518796992481203 
1.0 1:1.0 2:1.0 3:-0.7375693956494105 4:2.0 5:0.11392359428230218 6:-0.6277029809622579 7:0.34001020045902297 8:0.0 9:0.16666666666666666 10:0.019230769230769232 
-1.0 1:1.0 2:2.0 3:0.19644828363132952 4:1.0 5:0.11392359428230218 6:0.878784173347161 7:-1.0200306013770688 8:0.3333333333333333 9:0.16666666666666666 10:0.015151515151515152 
1.0 1:1.0 2:1.0 3:-0.2299510916924866 4:2.0 5:0.11392359428230218 6:1.3809465581169673 7:0.34001020045902297 8:0.25 9:0.16666666666666666 10:0.019230769230769232 
-1.0 1:1.0 2:3.0 3:1.1507706950703465 4:2.0 5:0.11392359428230218 6:1.3809465581169673 7:0.34001020045902297 8:0.25 9:0.16666666666666666 10:0.00847457627118644 
-0.2858923480304008 1:2.0 2:3.0 3:1.5873224364733012 4:2.0 5:2.392395479928344 6:2.38527132765658 7:0.34001020045902297 8:0.3333333333333333 9:0.3333333333333333 10:0.019801980198019802 
1.0 1:1.0 2:2.0 3:0.6533047571925611 4:2.0 5:0.11392359428230218 6:-0.6277029809622579 7:0.34001020045902297 8:0.0 9:0.16666666666666666 10:0.02 
-1.0 1:2.0 2:1.0 3:-0.3198612053003909 4:3.0 5:0.3524536884251206 6:-0.5334818510692348 7:1.1291148738752728 8:0.0 9:0.5 10:0.10526315789473684 
1.0 1:2.0 2:1.0 3:-0.5701438385557829 4:2.0 5:0.3524536884251206 6:-0.5334818510692348 7:-0.2822787184688185 8:0.0 9:0.5 10:0.044444444444444446 
1.0 1:2.0 2:0.0 3:-1.320991738321959 4:2.0 5:0.3524536884251206 6:-0.5334818510692348 7:-0.2822787184688185 8:0.0 9:0.5 10:0.2222222222222222 
1.0 1:2.0 2:0.0 3:-1.2809465170010963 4:2.0 5:0.3524536884251206 6:2.1339274042769394 7:-0.2822787184688185 8:0.11764705882352941 9:0.5 10:0.14285714285714285 
1.0 1:2.0 2:1.0 3:-0.059567266714783185 4:4.0 5:0.3524536884251206 6:0.5648631364262486 7:2.540508466219364 8:0.2857142857142857 9:0.5 10:0.05128205128205128 
1.0 1:1.0 2:3.0 3:1.2919589528643338 4:2.0 5:-1.4098147537004828 6:2.290833831062008 7:-0.2822787184688185 8:0.05555555555555555 9:0.25 10:0.011904761904761904 
1.0 1:2.0 2:0.0 3:-1.3310030436521747 4:2.0 5:0.3524536884251206 6:-0.5334818510692348 7:-0.2822787184688185 8:0.0 9:0.5 10:0.2222222222222222 
1.0 1:1.0 2:3.0 3:1.692411166072961 4:2.0 5:-1.4098147537004828 6:0.8786759899963867 7:-0.2822787184688185 8:0.1111111111111111 9:0.25 10:0.008547008547008548 
1.0 1:2.0 2:1.0 3:-0.10962379336586159 4:2.0 5:0.3524536884251206 6:-0.5334818510692348 7:-0.2822787184688185 8:0.0 9:0.5 10:0.05 
1.0 1:2.0 2:1.0 3:5.005652665108979E-4 4:2.0 5:0.3524536884251206 6:2.1339274042769394 7:-0.2822787184688185 8:0.11764705882352941 9:0.5 10:0.046511627906976744 
-1.7827944884750768E-4 1:2.0 2:0.0 3:-1.0406751890759198 4:2.0 5:0.3524536884251206 6:-0.5334818510692348 7:-0.2822787184688185 8:0.0 9:0.5 10:0.16666666666666666 
1.0 1:1.0 2:1.0 3:-0.4800420905838418 4:1.0 5:-1.4098147537004828 6:-0.5334818510692348 7:-1.6936723108129097 8:0.0 9:0.25 10:0.02564102564102564 
-0.7362826619566166 1:2.0 2:2.0 3:1.001631098288079 4:2.0 5:0.3524536884251206 6:-0.5334818510692348 7:-0.2822787184688185 8:0.0 9:0.5 10:0.023255813953488372 
-1.844658585741043E-4 1:2.0 2:0.0 3:-1.1107543263874298 4:2.0 5:0.3524536884251206 6:-0.5334818510692348 7:-0.2822787184688185 8:0.0 9:0.5 10:0.2222222222222222 
-1.0 1:2.0 2:0.0 3:-1.1107543263874298 4:2.0 5:0.3524536884251206 6:-0.5334818510692348 7:-0.2822787184688185 8:0.0 9:0.5 10:0.2222222222222222 
-1.0 1:2.0 2:0.0 3:-1.1107543263874298 4:2.0 5:0.3524536884251206 6:-0.5334818510692348 7:-0.2822787184688185 8:0.0 9:0.5 10:0.2222222222222222 
1.0 1:2.0 2:3.0 3:1.4321172274873533 4:2.0 5:0.3524536884251206 6:-0.5334818510692348 7:-0.2822787184688185 8:0.0 9:0.5 10:0.01818181818181818 
1.0 1:2.0 2:2.0 3:0.7913936863535497 4:3.0 5:0.3524536884251206 6:-0.5334818510692348 7:1.1291148738752728 8:0.0 9:0.5 10:0.022727272727272728 
-1.0 1:2.0 2:2.0 3:0.3508962518240597 4:3.0 5:0.3524536884251206 6:-0.5334818510692348 7:1.1291148738752728 8:0.0 9:0.5 10:0.04 
1.0 1:2.0 2:3.0 3:-0.6594549638966677 4:2.0 5:1.028991510855053 6:-0.6316017051823143 7:0.35805743701971643 8:2.0 9:0.2857142857142857 10:0.024691358024691357 
1.0 1:1.0 2:2.0 3:-1.2097062174689837 4:1.0 5:-0.685994340570035 6:0.7945956936164601 7:-1.0741723110591495 8:0.125 9:0.14285714285714285 10:0.016666666666666666 
1.0 1:2.0 2:2.0 3:-0.8626246575233689 4:2.0 5:1.028991510855053 6:-0.6316017051823143 7:0.35805743701971643 8:2.0 9:0.2857142857142857 10:0.030303030303030304 
1.0 1:0.0 2:4.0 3:0.7119404680835659 4:0.0 5:-2.400980191995123 6:-0.8353441907249964 7:-2.506402059138015 8:0.0 9:0.0 10:0.0 
-0.17740179459479144 1:1.0 2:3.0 3:-0.2446501727421526 4:2.0 5:-0.685994340570035 6:-0.42785921963963225 7:0.35805743701971643 8:0.5 9:0.14285714285714285 10:0.009900990099009901 
-0.29341486894405044 1:2.0 2:5.0 3:1.4061035879747952 4:2.0 5:1.028991510855053 6:0.7945956936164601 7:0.35805743701971643 8:0.25 9:0.2857142857142857 10:0.009852216748768473 
-0.18189898080634007 1:2.0 2:4.0 3:0.43258213934685164 4:3.0 5:1.028991510855053 6:0.7945956936164601 7:1.7902871850985822 8:0.25 9:0.2857142857142857 10:0.019417475728155338 
-0.2854503295041693 1:1.0 2:3.0 3:-0.3377696156543907 4:1.0 5:-0.685994340570035 6:-0.42785921963963225 7:-1.0741723110591495 8:0.5 9:0.14285714285714285 10:0.007462686567164179 
1.0 1:1.0 2:4.0 3:0.7627328914902411 4:1.0 5:-0.685994340570035 6:-0.6316017051823143 7:-1.0741723110591495 8:1.0 9:0.14285714285714285 10:0.006944444444444444 
1.0 1:2.0 2:3.0 3:-0.2954425961488279 4:3.0 5:1.028991510855053 6:-0.42785921963963225 7:1.7902871850985822 8:1.0 9:0.2857142857142857 10:0.02702702702702703 
-0.11658761151124584 1:2.0 2:5.0 3:1.431499799678133 4:2.0 5:1.028991510855053 6:3.0357630345859627 7:0.35805743701971643 8:0.10526315789473684 9:0.2857142857142857 10:0.011363636363636364 
-0.5762911337346763 1:1.0 2:3.0 3:8.465403901114477E-4 4:2.0 5:-0.685994340570035 6:-0.8353441907249964 7:0.35805743701971643 8:0.0 9:0.14285714285714285 10:0.007042253521126761 
