svm_type c_svc
kernel_type rbf
gamma 0.3333333333333333
nr_class 2
total_sv 11
rho 0.08677113302419312
label 1 0
nr_sv 5 6
SV
0.8640722499517485 1:9.0 2:1.0 3:-6.275180339813232 
0.9585027036365328 1:9.0 2:3.0 3:-6.2919511795043945 
1.0 1:5.0 2:6.0 3:-6.32051944732666 
1.0 1:3.0 2:9.0 3:-6.348675727844238 
1.0 1:1.0 2:11.0 3:-6.42404842376709 
-0.7869368957178482 1:6.0 2:2.0 3:-6.280977249145508 
-0.8463477872441132 1:5.0 2:4.0 3:-6.292541027069092 
-0.9821335813198296 1:7.0 2:5.0 3:-6.313823223114014 
-0.6035794651778484 1:14.0 2:7.0 3:-6.341096878051758 
-0.6035772241286418 1:15.0 2:8.0 3:-6.341724395751953 
-1.0 1:3.0 2:10.0 3:-6.355671405792236 
