svm_type epsilon_svr
kernel_type linear
nr_class 2
total_sv 191
rho -0.09976282295174972
probA 0.2570855656416307
SV
1.0 1:2.0 2:2.0 3:0.3900261469267577 4:2.0 5:0.16428801936338155 6:-0.7131238789776498 7:0.16428801936338155 8:0.0 9:0.4 10:0.044444444444444446 
1.0 1:2.0 2:2.0 3:1.185474209737908 4:2.0 5:0.16428801936338155 6:-0.7131238789776498 7:0.16428801936338155 8:0.0 9:0.4 10:0.021739130434782608 
1.0 1:2.0 2:1.0 3:-0.6620180651783122 4:2.0 5:0.16428801936338155 6:-0.7131238789776498 7:0.16428801936338155 8:0.0 9:0.4 10:0.09523809523809523 
1.0 1:2.0 2:1.0 3:-0.4952305681372645 4:2.0 5:0.16428801936338155 6:1.6408772749291551 7:0.16428801936338155 8:0.11764705882352941 9:0.4 10:0.06896551724137931 
1.0 1:2.0 2:1.0 3:-0.5080603756019605 4:2.0 5:0.16428801936338155 6:1.6408772749291551 7:0.16428801936338155 8:0.11764705882352941 9:0.4 10:0.06896551724137931 
1.0 1:3.0 2:1.0 3:-0.2129748039139531 4:3.0 5:1.8071682129971955 6:-0.5746532228654848 7:1.8071682129971955 8:3.0 9:0.6 10:0.07692307692307693 
1.0 1:3.0 2:2.0 3:0.8647290231205087 4:3.0 5:1.8071682129971955 6:-0.5746532228654848 7:1.8071682129971955 8:3.0 9:0.6 10:0.0379746835443038 
-0.24678565225447086 1:2.0 2:3.0 3:1.9424328501549706 4:2.0 5:0.16428801936338155 6:1.6408772749291551 7:0.16428801936338155 8:0.11764705882352941 9:0.4 10:0.017094017094017096 
-0.9890290071511398 1:2.0 2:1.0 3:-0.6748478726430082 4:2.0 5:0.16428801936338155 6:-0.7131238789776498 7:0.16428801936338155 8:0.0 9:0.4 10:0.04081632653061224 
-1.0 1:2.0 2:2.0 3:0.8390694081911168 4:2.0 5:0.16428801936338155 6:-0.7131238789776498 7:0.16428801936338155 8:0.0 9:0.4 10:0.025974025974025976 
-1.0 1:2.0 2:2.0 3:0.8390694081911168 4:2.0 5:0.16428801936338155 6:-0.7131238789776498 7:0.16428801936338155 8:0.0 9:0.4 10:0.025974025974025976 
-1.0 1:2.0 2:1.0 3:-0.37976230095500074 4:2.0 5:0.16428801936338155 6:-0.5746532228654848 7:0.16428801936338155 8:2.0 9:0.4 10:0.0625 
1.0 1:4.0 2:3.0 3:0.07731004154459209 4:4.0 5:1.4438457513688674 6:0.4235924440626455 7:0.9958203024623158 8:0.36363636363636365 9:0.8 10:0.03418803418803419 
1.0 1:4.0 2:9.0 3:2.6171788415686517 4:4.0 5:1.4438457513688674 6:2.32245512434347 7:0.9958203024623158 8:0.16666666666666666 9:0.8 10:0.012944983818770227 
1.0 1:4.0 2:2.0 3:-0.3192659640731997 4:4.0 5:1.4438457513688674 6:0.2775260840410436 7:0.9958203024623158 8:0.4 9:0.8 10:0.047619047619047616 
-1.0 1:2.0 2:0.0 3:-1.1792566279409953 4:2.0 5:-0.36096143784221674 6:-0.7449384361101695 7:-0.7360410931243205 8:0.6666666666666666 9:0.4 10:0.2 
-0.001444400563199922 1:3.0 2:0.0 3:-1.1035061549578216 4:3.0 5:0.5414421567633253 6:0.13145972401944173 7:0.12988960466899765 8:0.3333333333333333 9:0.6 10:0.23076923076923078 
-0.7713752702384933 1:3.0 2:2.0 3:-0.30144232337127647 4:4.0 5:0.5414421567633253 6:1.2999906041922566 7:0.9958203024623158 8:0.17647058823529413 9:0.6 10:0.034482758620689655 
-4.966506790685339E-4 1:2.0 2:5.0 3:1.1467284836599856 4:3.0 5:-0.36096143784221674 6:0.2775260840410436 7:0.12988960466899765 8:0.2 9:0.4 10:0.008620689655172414 
-0.17590545033731236 1:3.0 2:1.0 3:-0.7915924426741652 4:3.0 5:0.5414421567633253 6:1.1539242441706548 7:0.12988960466899765 8:0.1875 9:0.6 10:0.11538461538461539 
1.0 1:3.0 2:3.0 3:-0.038543623017908875 4:4.0 5:0.5414421567633253 6:0.4235924440626455 7:0.9958203024623158 8:0.2727272727272727 9:0.6 10:0.025423728813559324 
-0.6618700198088103 1:3.0 2:2.0 3:-0.5999883051284904 4:3.0 5:0.5414421567633253 6:1.1539242441706548 7:0.12988960466899765 8:0.1875 9:0.6 10:0.04918032786885246 
-0.4578963303245275 1:1.0 2:4.0 3:0.6164751727777696 4:2.0 5:-1.2633650324477588 6:-1.0370711561533732 7:-0.7360410931243205 8:1.0 9:0.2 10:0.0058823529411764705 
-0.9939234321989346 1:3.0 2:3.0 3:0.05057458049170725 4:4.0 5:0.5414421567633253 6:0.4235924440626455 7:0.9958203024623158 8:0.2727272727272727 9:0.6 10:0.024390243902439025 
1.0 1:2.0 2:0.0 3:-1.1748007177655144 4:2.0 5:-0.36096143784221674 6:-1.183137516174975 7:-0.7360410931243205 8:0.0 9:0.4 10:0.2222222222222222 
1.0 1:1.0 2:4.0 3:0.2956496401431516 4:2.0 5:-1.2633650324477588 6:-1.0370711561533732 7:-0.7360410931243205 8:1.0 9:0.2 10:0.0072992700729927005 
-1.0 1:2.0 2:3.0 3:0.5518823624031896 4:2.0 5:-0.49319016121611486 6:0.211999576001272 7:-0.49319016121611486 8:0.6666666666666666 9:0.3333333333333333 10:0.02247191011235955 
1.0 1:4.0 2:1.0 3:-1.0149208552045965 4:4.0 5:2.325039331447398 6:3.17999364001908 7:2.325039331447398 8:0.4 9:0.6666666666666666 10:0.11428571428571428 
-1.0 1:2.0 2:1.0 3:-0.3671921507186961 4:2.0 5:-0.49319016121611486 6:0.211999576001272 7:-0.49319016121611486 8:0.6666666666666666 9:0.3333333333333333 10:0.044444444444444446 
1.0 1:3.0 2:1.0 3:-0.4109576037245002 4:3.0 5:0.9159245851156416 6:0.6359987280038161 7:0.9159245851156416 8:0.75 9:0.5 10:0.061224489795918366 
1.0 1:2.0 2:3.0 3:0.6394132684147976 4:2.0 5:-0.49319016121611486 6:-0.211999576001272 7:-0.49319016121611486 8:1.0 9:0.3333333333333333 10:0.021739130434782608 
-0.22387216485921108 1:1.0 2:2.0 3:-0.17462415749315818 4:1.0 5:-1.9023049075478713 6:-1.05999788000636 7:-1.9023049075478713 8:0.0 9:0.16666666666666666 10:0.018867924528301886 
1.0 1:2.0 2:1.0 3:-0.8223528619790585 4:2.0 5:-0.49319016121611486 6:-0.6359987280038161 7:-0.49319016121611486 8:2.0 9:0.3333333333333333 10:0.09090909090909091 
-0.6002912496999581 1:2.0 2:1.0 3:-0.8223528619790585 4:2.0 5:-0.49319016121611486 6:-0.211999576001272 7:-0.49319016121611486 8:1.0 9:0.3333333333333333 10:0.09090909090909091 
1.0 1:3.0 2:2.0 3:-0.12210561388619327 4:3.0 5:0.9159245851156416 6:0.6359987280038161 7:0.9159245851156416 8:0.75 9:0.5 10:0.06382978723404255 
-0.9991124991497039 1:2.0 2:1.0 3:-1.1637233954243302 4:2.0 5:-0.49319016121611486 6:-1.05999788000636 7:-0.49319016121611486 8:0.0 9:0.3333333333333333 10:0.10526315789473684 
1.0 1:2.0 2:1.0 3:-1.1112048518173654 4:2.0 5:-0.49319016121611486 6:-1.05999788000636 7:-0.49319016121611486 8:0.0 9:0.3333333333333333 10:0.1 
1.0 1:3.0 2:1.0 3:-0.5685132345453948 4:3.0 5:0.9159245851156416 6:0.6359987280038161 7:0.9159245851156416 8:0.75 9:0.5 10:0.08108108108108109 
1.0 1:2.0 2:1.0 3:-0.7698343183720936 4:2.0 5:-0.49319016121611486 6:-0.6359987280038161 7:-0.49319016121611486 8:2.0 9:0.3333333333333333 10:0.08 
1.0 1:2.0 2:4.0 3:1.532228509733201 4:2.0 5:-0.49319016121611486 6:-1.05999788000636 7:-0.49319016121611486 8:0.0 9:0.3333333333333333 10:0.014184397163120567 
1.0 1:3.0 2:3.0 3:0.9020059864496222 4:3.0 5:0.9159245851156416 6:0.6359987280038161 7:0.9159245851156416 8:0.75 9:0.5 10:0.03571428571428571 
-0.5618348696593476 1:3.0 2:4.0 3:1.5497346909355225 4:3.0 5:0.9159245851156416 6:0.6359987280038161 7:0.9159245851156416 8:0.75 9:0.5 10:0.02097902097902098 
-0.6010788928368983 1:2.0 2:4.0 3:2.2762412108318704 4:2.0 5:-0.49319016121611486 6:-1.05999788000636 7:-0.49319016121611486 8:0.0 9:0.3333333333333333 10:0.012048192771084338 
-0.003224106900896678 1:1.0 2:3.0 3:0.9109329734364786 4:1.0 5:-1.175682138518808 6:0.9759000729485332 7:-1.175682138518808 8:0.3333333333333333 9:0.25 10:0.011494252873563218 
1.0 1:2.0 2:2.0 3:0.045170230087759375 4:2.0 5:0.5038637736509178 6:-1.3662601021279466 7:0.5038637736509178 8:0.0 9:0.5 10:0.021052631578947368 
-0.008038598201240664 1:2.0 2:1.0 3:-1.1593692389191543 4:2.0 5:0.5038637736509178 6:-0.5855400437691199 7:0.5038637736509178 8:2.0 9:0.5 10:0.05555555555555555 
-1.0 1:2.0 2:2.0 3:0.148685340705541 4:2.0 5:0.5038637736509178 6:0.19518001458970666 7:0.5038637736509178 8:1.0 9:0.5 10:0.018518518518518517 
1.0 1:2.0 2:1.0 3:-0.6794355442367122 4:2.0 5:0.5038637736509178 6:-0.5855400437691199 7:0.5038637736509178 8:2.0 9:0.5 10:0.04081632653061224 
1.0 1:2.0 2:1.0 3:-0.8017715840577269 4:2.0 5:0.5038637736509178 6:-0.5855400437691199 7:0.5038637736509178 8:2.0 9:0.5 10:0.03333333333333333 
-0.08259471771511322 1:1.0 2:3.0 3:1.0520899424607264 4:1.0 5:-1.175682138518808 6:-0.5855400437691199 7:-1.175682138518808 8:1.0 9:0.25 10:0.009615384615384616 
1.0 1:2.0 2:0.0 3:-1.6016610751951306 4:2.0 5:0.5038637736509178 6:0.19518001458970666 7:0.5038637736509178 8:1.0 9:0.5 10:0.11764705882352941 
-0.9061725397230342 1:1.0 2:2.0 3:0.2710213805265557 4:1.0 5:-1.175682138518808 6:-0.5855400437691199 7:-1.175682138518808 8:1.0 9:0.25 10:0.013513513513513514 
-0.07553714648350308 1:2.0 2:3.0 3:0.9956271548510273 4:2.0 5:0.5038637736509178 6:0.19518001458970666 7:0.5038637736509178 8:1.0 9:0.5 10:0.01834862385321101 
-0.9745524044025944 1:2.0 2:1.0 3:-0.5006367168059984 4:2.0 5:0.5038637736509178 6:0.9759000729485332 7:0.5038637736509178 8:0.6666666666666666 9:0.5 10:0.03125 
1.0 1:2.0 2:4.0 3:1.5508445663464017 4:2.0 5:0.5038637736509178 6:1.7566201313073597 7:0.5038637736509178 8:0.5 9:0.5 10:0.016 
-1.0 1:2.0 2:4.0 3:1.4755608495334696 4:2.0 5:0.5038637736509178 6:1.7566201313073597 7:0.5038637736509178 8:0.5 9:0.5 10:0.017391304347826087 
1.0 1:2.0 2:1.0 3:-0.5006367168059984 4:2.0 5:0.5038637736509178 6:0.9759000729485332 7:0.5038637736509178 8:0.6666666666666666 9:0.5 10:0.0425531914893617 
-0.027510802143510468 1:2.0 2:3.0 3:1.268530628297906 4:2.0 5:0.5038637736509178 6:0.9759000729485332 7:0.5038637736509178 8:0.6666666666666666 9:0.5 10:0.019230769230769232 
1.0 1:2.0 2:2.0 3:0.08281208849422543 4:2.0 5:0.5038637736509178 6:0.19518001458970666 7:0.5038637736509178 8:1.0 9:0.5 10:0.028985507246376812 
1.0 1:0.0 2:1.0 3:-1.0746750575046058 4:0.0 5:-2.855228050688534 6:-1.3662601021279466 7:-2.855228050688534 8:0.0 9:0.0 10:0.0 
1.0 1:1.0 2:2.0 3:-0.4065320707898333 4:1.0 5:-1.175682138518808 6:-0.5855400437691199 7:-1.175682138518808 8:1.0 9:0.25 10:0.018867924528301886 
-0.65364973095526 1:2.0 2:4.0 3:0.5368670114333913 4:2.0 5:-0.7352146220938078 6:-0.2531621171528293 7:-0.7352146220938078 8:2.0 9:0.4 10:0.014814814814814815 
1.0 1:2.0 2:2.0 3:-0.28048802240276843 4:2.0 5:-0.7352146220938078 6:-0.40659370330605926 7:-0.7352146220938078 8:0.0 9:0.4 10:0.024096385542168676 
1.0 1:3.0 2:6.0 3:1.9246064933422669 4:3.0 5:0.7352146220938078 6:-0.2531621171528293 7:0.7352146220938078 8:3.0 9:0.6 10:0.013100436681222707 
1.0 1:3.0 2:4.0 3:0.6074300359372324 4:3.0 5:0.7352146220938078 6:-0.09973053099959943 7:0.7352146220938078 8:1.5 9:0.6 10:0.02158273381294964 
1.0 1:2.0 2:2.0 3:-0.33929054282263604 4:2.0 5:-0.7352146220938078 6:-0.09973053099959943 7:-0.7352146220938078 8:1.0 9:0.4 10:0.021052631578947368 
1.0 1:2.0 2:1.0 3:-0.9155552429373386 4:2.0 5:-0.7352146220938078 6:-0.2531621171528293 7:-0.7352146220938078 8:2.0 9:0.4 10:0.05263157894736842 
1.0 1:2.0 2:3.0 3:0.2898964256699474 4:2.0 5:-0.7352146220938078 6:-0.40659370330605926 7:-0.7352146220938078 8:0.0 9:0.4 10:0.016260162601626018 
1.0 1:4.0 2:5.0 3:1.1484132238000144 4:4.0 5:2.2056438662814233 6:4.196353881290839 7:2.2056438662814233 8:0.13333333333333333 9:0.8 10:0.029197080291970802 
1.0 1:3.0 2:2.0 3:-0.6509439010479343 4:3.0 5:0.7352146220938078 6:-0.2531621171528293 7:0.7352146220938078 8:3.0 9:0.6 10:0.039473684210526314 
-1.0 1:2.0 2:3.0 3:0.2898964256699474 4:2.0 5:-0.7352146220938078 6:-0.40659370330605926 7:-0.7352146220938078 8:0.0 9:0.4 10:0.0196078431372549 
1.0 1:3.0 2:6.0 3:1.6952766637047831 4:3.0 5:0.7352146220938078 6:-0.40659370330605926 7:0.7352146220938078 8:0.0 9:0.6 10:0.015957446808510637 
-1.0 1:2.0 2:1.0 3:-0.9743577633572063 4:2.0 5:-0.7352146220938078 6:-0.2531621171528293 7:-0.7352146220938078 8:2.0 9:0.4 10:0.09090909090909091 
-1.0 1:2.0 2:1.0 3:-1.1566455766587957 4:2.0 5:-0.7352146220938078 6:-0.2531621171528293 7:-0.7352146220938078 8:2.0 9:0.4 10:0.08333333333333333 
1.0 1:3.0 2:2.0 3:-0.5803808765440932 4:3.0 5:0.7352146220938078 6:-0.2531621171528293 7:0.7352146220938078 8:3.0 9:0.6 10:0.06818181818181818 
-1.0 1:3.0 2:1.0 3:-0.6685846571738946 4:3.0 5:0.7352146220938078 6:0.82085898591978 7:0.7352146220938078 8:0.375 9:0.6 10:0.09375 
-0.9849064817440816 1:3.0 2:1.0 3:-1.127244316448862 4:3.0 5:0.7352146220938078 6:-0.2531621171528293 7:0.7352146220938078 8:3.0 9:0.6 10:0.08333333333333333 
1.0 1:2.0 2:5.0 3:1.4659468340672996 4:2.0 5:-0.7352146220938078 6:-0.40659370330605926 7:-0.7352146220938078 8:0.0 9:0.4 10:0.012121212121212121 
-0.037538563954354176 1:2.0 2:1.0 3:-1.2272086011626369 4:2.0 5:-0.7352146220938078 6:-0.2531621171528293 7:-0.7352146220938078 8:2.0 9:0.4 10:0.09090909090909091 
-1.0 1:2.0 2:2.0 3:-0.27460777036078166 4:2.0 5:-0.7352146220938078 6:-0.2531621171528293 7:-0.7352146220938078 8:2.0 9:0.4 10:0.022988505747126436 
-1.0 1:4.0 2:2.0 3:-0.5738394803096719 4:4.0 5:1.2403473458920844 6:1.703316633409088 7:1.2403473458920844 8:0.8 9:0.8 10:0.08888888888888889 
-0.01772730933596135 1:3.0 2:2.0 3:-0.3714161467958379 4:3.0 5:0.0 6:-0.9171704949125857 7:0.0 8:0.0 9:0.6 10:0.05555555555555555 
-0.574122598261073 1:3.0 2:1.0 3:-0.6474479652237934 4:3.0 5:0.0 6:0.13102435641608368 7:0.0 8:1.5 9:0.6 10:0.06521739130434782 
-0.39970875030004194 1:2.0 2:2.0 3:-0.11992049000592295 4:2.0 5:-1.2403473458920844 6:-0.9171704949125857 7:-1.2403473458920844 8:0.0 9:0.4 10:0.024096385542168676 
-1.0 1:3.0 2:3.0 3:0.10090496473644144 4:3.0 5:0.0 6:0.13102435641608368 7:0.0 8:1.5 9:0.6 10:0.030612244897959183 
-0.4589057286349065 1:2.0 2:2.0 3:-0.11378644959641282 4:2.0 5:-1.2403473458920844 6:-0.9171704949125857 7:-1.2403473458920844 8:0.0 9:0.4 10:0.028985507246376812 
-0.06737704240563873 1:3.0 2:0.0 3:-1.230181804127255 4:3.0 5:0.0 6:-0.9171704949125857 7:0.0 8:0.0 9:0.6 10:0.23076923076923078 
-0.06941775855831193 1:3.0 2:0.0 3:-1.2608520061748056 4:3.0 5:0.0 6:0.13102435641608368 7:0.0 8:1.5 9:0.6 10:0.21428571428571427 
1.0 1:4.0 2:2.0 3:-0.13218857082494317 4:4.0 5:1.2403473458920844 6:0.13102435641608368 7:1.2403473458920844 8:2.0 9:0.8 10:0.05063291139240506 
-1.0 1:4.0 2:3.0 3:0.13157516678399203 4:4.0 5:1.2403473458920844 6:2.2274140590734226 7:1.2403473458920844 8:0.6666666666666666 9:0.8 10:0.043478260869565216 
-0.2981997050856801 1:3.0 2:7.0 3:2.5177168860834294 4:3.0 5:0.0 6:1.1792192077447532 7:0.0 8:0.75 9:0.6 10:0.010948905109489052 
1.0 1:3.0 2:3.0 3:0.11930708596497179 4:3.0 5:0.0 6:-0.9171704949125857 7:0.0 8:0.0 9:0.6 10:0.03896103896103896 
1.0 1:2.0 2:1.0 3:-1.082964834299012 4:2.0 5:-1.2403473458920844 6:-0.9171704949125857 7:-1.2403473458920844 8:0.0 9:0.4 10:0.08 
-1.0 1:3.0 2:3.0 3:0.07023476268889083 4:3.0 5:0.0 6:-0.9171704949125857 7:0.0 8:0.0 9:0.6 10:0.037037037037037035 
1.0 1:1.0 2:2.0 3:-0.224199176967595 4:1.0 5:-2.480694691784169 6:-0.9171704949125857 7:-2.480694691784169 8:0.0 9:0.2 10:0.011627906976744186 
-0.3541758785435178 1:4.0 2:1.0 3:-0.6965202884998744 4:4.0 5:1.2403473458920844 6:1.1792192077447532 7:1.2403473458920844 8:1.0 9:0.8 10:0.09090909090909091 
-1.0 1:3.0 2:5.0 3:1.54240446097132 4:3.0 5:0.0 6:0.13102435641608368 7:0.0 8:1.5 9:0.6 10:0.03260869565217391 
-0.06705084220150632 1:2.0 2:1.0 3:-1.1075009959370525 4:2.0 5:-1.2403473458920844 6:-0.39307306924825103 7:-1.2403473458920844 8:2.0 9:0.4 10:0.05 
-1.0 1:3.0 2:6.0 3:1.9717872896370285 4:3.0 5:0.0 6:1.1792192077447532 7:0.0 8:0.75 9:0.6 10:0.02727272727272727 
1.0 1:3.0 2:1.0 3:-0.6045096823572226 4:3.0 5:0.0 6:-0.39307306924825103 7:0.0 8:3.0 9:0.6 10:0.07142857142857142 
-0.8013394294940487 1:2.0 2:3.0 3:-0.126263322593923 4:2.0 5:0.10257084643119506 6:0.27236986017441556 7:-0.9395408490595016 8:0.5 9:0.2222222222222222 10:0.020202020202020204 
-0.0396752471757547 1:1.0 2:3.0 3:-0.1171632633078745 4:2.0 5:-1.9488460821927043 6:-0.47045703121035415 7:-0.9395408490595016 8:1.0 9:0.1111111111111111 10:0.010416666666666666 
-0.0014669429112771936 1:2.0 2:3.0 3:1.2639213797944848 4:3.0 5:0.8180128247238179 6:0.5154169661122503 7:1.0 8:0.5 9:0.6666666666666666 10:0.020202020202020204 
1.0 1:2.0 2:2.0 3:-0.03159803449486212 4:3.0 5:0.8180128247238179 6:-0.22089298547667877 7:1.0 8:1.0 9:0.6666666666666666 10:0.04 
-5.478934740541958E-4 1:1.0 2:2.0 3:0.41077444843320754 4:2.0 5:-0.5453418831492117 6:-0.5890479612711433 7:0.0 8:1.0 9:0.3333333333333333 10:0.014492753623188406 
-2.6311837045404934E-4 1:1.0 2:2.0 3:0.04213071265981616 4:2.0 5:-0.5453418831492117 6:-0.5890479612711433 7:0.0 8:1.0 9:0.3333333333333333 10:0.014925373134328358 
-5.399753973651497E-4 1:2.0 2:3.0 3:1.2428560234645767 4:3.0 5:0.8180128247238179 6:1.2517269177011794 7:1.0 8:0.3333333333333333 9:0.6666666666666666 10:0.018518518518518517 
-0.15461974399527711 1:2.0 2:4.0 3:2.1907970583104404 4:2.0 5:0.8180128247238179 6:1.2517269177011794 7:0.0 8:0.3333333333333333 9:0.6666666666666666 10:0.014285714285714285 
-0.5965263438384799 1:2.0 2:2.0 3:0.558231942742564 4:2.0 5:0.8180128247238179 6:0.5154169661122503 7:0.0 8:0.5 9:0.6666666666666666 10:0.02040816326530612 
-7.730263682331835E-5 1:0.0 2:3.0 3:2.408916420954211 4:2.0 5:-2.069759327926476 6:-0.5077773275140762 7:-0.6984302957695779 8:0.0 9:0.0 10:0.0 
-0.9998592319743627 1:2.0 2:1.0 3:-0.6275631284586565 4:2.0 5:0.3524536884251206 6:0.8001280307281944 7:0.3524536884251206 8:0.6666666666666666 9:0.4 10:0.0425531914893617 
-0.9998523298539038 1:2.0 2:2.0 3:0.11790579989223243 4:2.0 5:0.3524536884251206 6:-1.1201792430194721 7:0.3524536884251206 8:0.0 9:0.4 10:0.03076923076923077 
-0.048461912248322914 1:2.0 2:6.0 3:3.0693542100977926 4:2.0 5:0.3524536884251206 6:3.360537729058416 7:0.3524536884251206 8:0.2857142857142857 9:0.4 10:0.00966183574879227 
-0.5381153984228197 1:1.0 2:1.0 3:-1.2437160182180647 4:1.0 5:-1.4098147537004828 6:-0.48007681843691663 7:-1.4098147537004828 8:1.0 9:0.2 10:0.038461538461538464 
-0.1160296781489993 1:2.0 2:3.0 3:0.39175152867419166 4:2.0 5:0.3524536884251206 6:-1.1201792430194721 7:0.3524536884251206 8:0.0 9:0.4 10:0.024096385542168676 
-1.0 1:2.0 2:2.0 3:-0.2396150126842143 4:2.0 5:0.3524536884251206 6:0.8001280307281944 7:0.3524536884251206 8:0.6666666666666666 9:0.4 10:0.03389830508474576 
-1.0 1:2.0 2:2.0 3:-0.543888044664169 4:2.0 5:0.3524536884251206 6:0.8001280307281944 7:0.3524536884251206 8:0.6666666666666666 9:0.4 10:0.031746031746031744 
1.0 1:2.0 2:3.0 3:0.7720928186491349 4:2.0 5:0.3524536884251206 6:-0.48007681843691663 7:0.3524536884251206 8:2.0 9:0.4 10:0.015384615384615385 
-0.6016583917556998 1:2.0 2:2.0 3:-0.5286743930651713 4:2.0 5:0.3524536884251206 6:0.16002560614563888 7:0.3524536884251206 8:1.0 9:0.4 10:0.03508771929824561 
-0.9597109027974428 1:2.0 2:1.0 3:-1.000297592634101 4:2.0 5:0.3524536884251206 6:-0.48007681843691663 7:0.3524536884251206 8:2.0 9:0.4 10:0.05 
-1.0 1:2.0 2:1.0 3:-0.7568791670501372 4:2.0 5:0.3524536884251206 6:0.16002560614563888 7:0.3524536884251206 8:1.0 9:0.4 10:0.046511627906976744 
-1.0 1:2.0 2:1.0 3:-0.7949132960476316 4:2.0 5:0.3524536884251206 6:-0.48007681843691663 7:0.3524536884251206 8:2.0 9:0.4 10:0.05263157894736842 
1.0 1:2.0 2:1.0 3:-0.939297218821549 4:2.0 5:-0.25776963111323375 6:1.32189232674413 7:-0.46880723093849536 8:0.5 9:0.2857142857142857 10:0.08 
1.0 1:2.0 2:1.0 3:-0.939297218821549 4:2.0 5:-0.25776963111323375 6:1.32189232674413 7:-0.46880723093849536 8:0.5 9:0.2857142857142857 10:0.08 
1.0 1:2.0 2:1.0 3:-0.939297218821549 4:2.0 5:-0.25776963111323375 6:1.32189232674413 7:-0.46880723093849536 8:0.5 9:0.2857142857142857 10:0.08 
1.0 1:2.0 2:1.0 3:-1.0429828124696878 4:2.0 5:-0.25776963111323375 6:-0.10718045892519967 7:-0.46880723093849536 8:1.0 9:0.2857142857142857 10:0.09090909090909091 
1.0 1:2.0 2:2.0 3:-0.2606278785791855 4:2.0 5:-0.25776963111323375 6:1.32189232674413 7:-0.46880723093849536 8:0.5 9:0.2857142857142857 10:0.06451612903225806 
1.0 1:2.0 2:2.0 3:-0.2606278785791855 4:2.0 5:-0.25776963111323375 6:1.32189232674413 7:-0.46880723093849536 8:0.5 9:0.2857142857142857 10:0.06451612903225806 
1.0 1:2.0 2:3.0 3:0.7573761317843598 4:2.0 5:-0.25776963111323375 6:-1.5362532445945294 7:-0.46880723093849536 8:0.0 9:0.2857142857142857 10:0.016666666666666666 
-0.28845293905737485 1:4.0 2:3.0 3:0.8233578731968119 4:4.0 5:2.319926680019101 6:-0.10718045892519967 7:1.8752289237539819 8:2.0 9:0.5714285714285714 10:0.0449438202247191 
-0.999184532361704 1:3.0 2:3.0 3:1.1061367649644633 4:3.0 5:1.0310785244529337 6:0.6073559339094652 7:0.7032108464077432 8:1.0 9:0.42857142857142855 10:0.02564102564102564 
-0.022314065166955818 1:2.0 2:2.0 3:0.5311530183702386 4:2.0 5:-0.25776963111323375 6:-0.10718045892519967 7:-0.46880723093849536 8:1.0 9:0.2857142857142857 10:0.025 
-0.9804710027749522 1:2.0 2:1.0 3:-1.1560943691767485 4:2.0 5:-0.25776963111323375 6:-0.10718045892519967 7:-0.46880723093849536 8:1.0 9:0.2857142857142857 10:0.09090909090909091 
-1.0 1:3.0 2:2.0 3:-0.006126875988299169 4:3.0 5:1.0310785244529337 6:-0.10718045892519967 7:0.7032108464077432 8:1.5 9:0.42857142857142855 10:0.05 
1.0 1:1.0 2:1.0 3:-1.2597799628248874 4:1.0 5:-1.5466177866794013 6:-0.8217168517598645 7:-1.640825308284734 8:1.0 9:0.14285714285714285 10:0.043478260869565216 
-0.0146354900320098 1:3.0 2:2.0 3:0.23894816354366544 4:4.0 5:1.0310785244529337 6:-0.8217168517598645 7:1.8752289237539819 8:3.0 9:0.42857142857142855 10:0.06382978723404255 
1.0 1:3.0 2:6.0 3:1.0661876173625031 4:3.0 5:1.0162017339941978 6:1.9675733165118798 7:1.0162017339941978 8:0.42857142857142855 9:0.6 10:0.015706806282722512 
-6.402452347792199E-4 1:3.0 2:10.0 3:3.011425995460372 4:3.0 5:1.0162017339941978 6:0.6702722287018491 7:1.0162017339941978 8:0.75 9:0.6 10:0.007281553398058253 
-1.0 1:2.0 2:2.0 3:-0.279884509253744 4:2.0 5:-0.43551502885465576 6:-0.6270288591081816 7:-0.43551502885465576 8:2.0 9:0.4 10:0.02197802197802198 
-0.152346512325831 1:2.0 2:2.0 3:-0.6779607174298902 4:2.0 5:-0.43551502885465576 6:-0.1945951631715047 7:-0.43551502885465576 8:1.0 9:0.4 10:0.03225806451612903 
-0.0024294360188573676 1:2.0 2:6.0 3:1.0292527114492522 4:2.0 5:-0.43551502885465576 6:-0.6270288591081816 7:-0.43551502885465576 8:2.0 9:0.4 10:0.008968609865470852 
-1.0 1:3.0 2:3.0 3:0.0894645498787628 4:3.0 5:1.0162017339941978 6:-0.1945951631715047 7:1.0162017339941978 8:1.5 9:0.6 10:0.0234375 
1.0 1:2.0 2:3.0 3:-0.17728754838360322 4:2.0 5:-0.43551502885465576 6:-0.1945951631715047 7:-0.43551502885465576 8:1.0 9:0.4 10:0.020833333333333332 
-0.10055834840689594 1:2.0 2:1.0 3:-0.9857516000403126 4:2.0 5:-0.43551502885465576 6:-0.1945951631715047 7:-0.43551502885465576 8:1.0 9:0.4 10:0.09523809523809523 
-1.0 1:2.0 2:2.0 3:-0.4235202544719411 4:2.0 5:-0.43551502885465576 6:-0.6270288591081816 7:-0.43551502885465576 8:2.0 9:0.4 10:0.04 
-0.7095511609302142 1:3.0 2:7.0 3:1.4273289196253987 4:3.0 5:1.0162017339941978 6:3.2648744043219105 7:1.0162017339941978 8:0.3 9:0.6 10:0.009259259259259259 
-0.9993508363082919 1:3.0 2:1.0 3:-0.7272072586475578 4:3.0 5:1.0162017339941978 6:0.6702722287018491 7:1.0162017339941978 8:0.75 9:0.6 10:0.06818181818181818 
1.0 1:2.0 2:2.0 3:-0.669752960560279 4:2.0 5:-0.43551502885465576 6:-0.6270288591081816 7:-0.43551502885465576 8:2.0 9:0.4 10:0.06896551724137931 
1.0 1:2.0 2:2.0 3:-0.669752960560279 4:2.0 5:-0.43551502885465576 6:-0.6270288591081816 7:-0.43551502885465576 8:2.0 9:0.4 10:0.06896551724137931 
-0.2717190432876293 1:3.0 2:0.0 3:-1.1786338864761772 4:3.0 5:1.0162017339941978 6:-0.1945951631715047 7:1.0162017339941978 8:1.5 9:0.6 10:0.3333333333333333 
-0.6732051444959317 1:3.0 2:0.0 3:-1.1786338864761772 4:3.0 5:1.0162017339941978 6:-0.1945951631715047 7:1.0162017339941978 8:1.5 9:0.6 10:0.3333333333333333 
1.0 1:2.0 2:2.0 3:-0.6574413252558621 4:2.0 5:-0.43551502885465576 6:-0.6270288591081816 7:-0.43551502885465576 8:2.0 9:0.4 10:0.06896551724137931 
-1.0 1:2.0 2:2.0 3:-0.435831889776358 4:2.0 5:-0.43551502885465576 6:-0.1945951631715047 7:-0.43551502885465576 8:1.0 9:0.4 10:0.03636363636363636 
-1.0 1:2.0 2:3.0 3:-0.20601469742724263 4:2.0 5:-0.43551502885465576 6:-0.1945951631715047 7:-0.43551502885465576 8:1.0 9:0.4 10:0.027777777777777776 
-0.008667132985584275 1:3.0 2:3.0 3:0.9256849997890214 4:3.0 5:1.9616271301204784 6:0.8898058829052278 7:2.0 8:3.0 9:0.5 10:0.036585365853658534 
-0.002265713785429516 1:1.0 2:2.0 3:0.792766128024444 4:2.0 5:-2.397544270147252 6:-0.47912624464127646 7:-0.6666666666666666 8:0.0 9:0.16666666666666666 10:0.01098901098901099 
-0.023894769430394293 1:3.0 2:1.0 3:-0.9161907946629801 4:3.0 5:1.9616271301204784 6:3.627670137998236 7:2.0 8:1.0 9:0.5 10:0.11538461538461539 
-0.0048787791586705175 1:2.0 2:2.0 3:0.5933878203775779 4:2.0 5:-0.2179585700133867 6:0.8898058829052278 7:-0.6666666666666666 8:2.0 9:0.3333333333333333 10:0.028169014084507043 
-0.006594492091135746 1:1.0 2:3.0 3:1.1630401279400526 4:2.0 5:-2.397544270147252 6:0.8898058829052278 7:-0.6666666666666666 8:1.0 9:0.16666666666666666 10:0.0125 
-1.0 1:2.0 2:2.0 3:0.014241307689061868 4:2.0 5:-0.2179585700133867 6:-0.47912624464127646 7:-0.6666666666666666 8:0.0 9:0.3333333333333333 10:0.03636363636363636 
-0.03757401890127912 1:2.0 2:2.0 3:0.6503530511338252 4:2.0 5:-0.2179585700133867 6:0.8898058829052278 7:-0.6666666666666666 8:2.0 9:0.3333333333333333 10:0.022988505747126436 
-0.042777501722913974 1:2.0 2:2.0 3:0.7737777177723615 4:2.0 5:-0.2179585700133867 6:-0.47912624464127646 7:-0.6666666666666666 8:0.0 9:0.3333333333333333 10:0.021052631578947368 
-0.024177308072285863 1:2.0 2:2.0 3:0.6218704357557016 4:2.0 5:-0.2179585700133867 6:-0.47912624464127646 7:-0.6666666666666666 8:0.0 9:0.3333333333333333 10:0.03636363636363636 
-0.039856088373849526 1:2.0 2:0.0 3:-1.685221409872321 4:2.0 5:-0.2179585700133867 6:-0.47912624464127646 7:-0.6666666666666666 8:0.0 9:0.3333333333333333 10:0.2857142857142857 
-1.0 1:3.0 2:1.0 3:-0.749354392659727 4:3.0 5:0.0 6:-0.43357993445572623 7:-0.1922721423134322 8:1.5 9:0.42857142857142855 10:0.16666666666666666 
-0.22487909823748492 1:2.0 2:1.0 3:-0.6108867331465165 4:2.0 5:-2.0 6:0.30969995318266164 7:-2.1149935654477523 8:0.4 9:0.2857142857142857 10:0.08695652173913043 
-0.3711077292791342 1:3.0 2:2.0 3:0.06516125153562843 4:4.0 5:0.0 6:2.539539616097825 7:1.730449280820888 8:0.21428571428571427 9:0.42857142857142855 10:0.05660377358490566 
-0.5926513049843269 1:3.0 2:2.0 3:-0.21177406749079242 4:3.0 5:0.0 6:-0.18581997190959698 7:-0.1922721423134322 8:1.0 9:0.42857142857142855 10:0.1111111111111111 
-0.014579265657122503 1:3.0 2:4.0 3:1.97112785895276 4:3.0 5:0.0 6:0.30969995318266164 7:-0.1922721423134322 8:0.6 9:0.42857142857142855 10:0.023255813953488372 
-0.062190944726061105 1:3.0 2:5.0 3:2.3376598988406703 4:3.0 5:0.0 6:-0.9290998595479848 7:-0.1922721423134322 8:0.0 9:0.42857142857142855 10:0.01775147928994083 
-0.003882888416981546 1:2.0 2:4.0 3:1.9629827025108066 4:2.0 5:-2.0 6:0.557459915728791 7:-2.1149935654477523 8:0.3333333333333333 9:0.2857142857142857 10:0.013986013986013986 
1.0 1:4.0 2:3.0 3:0.8552414264051232 4:4.0 5:2.0 6:2.539539616097825 7:1.730449280820888 8:0.2857142857142857 9:0.5714285714285714 10:0.044444444444444446 
-0.13846005451233756 1:3.0 2:2.0 3:-0.14661281595516398 4:3.0 5:0.0 6:-0.9290998595479848 7:-0.1922721423134322 8:0.0 9:0.42857142857142855 10:0.10344827586206896 
-0.33893378388871337 1:1.0 2:3.0 3:0.03985993973508737 4:2.0 5:-1.4061063869729817 6:-0.7947520938621352 7:-0.1399594176524683 8:0.5 9:0.2 10:0.007936507936507936 
1.0 1:2.0 2:3.0 3:-0.5139193756684156 4:2.0 5:-0.0669574469987132 6:0.6954080821293682 7:-0.1399594176524683 8:0.25 9:0.4 10:0.023255813953488372 
-0.10132190900427518 1:2.0 2:2.0 3:-0.6721420372122736 4:2.0 5:-0.0669574469987132 6:-0.29803203519830074 7:-0.1399594176524683 8:0.5 9:0.4 10:0.017391304347826087 
-1.0 1:2.0 2:4.0 3:0.5206134113491174 4:2.0 5:-0.0669574469987132 6:-0.04967200586638349 7:-0.1399594176524683 8:0.4 9:0.4 10:0.013888888888888888 
-0.07980846437417496 1:2.0 2:4.0 3:0.5388698722964856 4:2.0 5:-0.0669574469987132 6:1.9372082287889543 7:-0.1399594176524683 8:0.15384615384615385 9:0.4 10:0.015625 
-0.3968178325150241 1:3.0 2:4.0 3:0.45975854152455664 4:3.0 5:1.2721914929755553 6:0.44704805279745097 7:1.2596347588722134 8:0.42857142857142855 9:0.6 10:0.02702702702702703 
-0.28039041182457664 1:2.0 2:4.0 3:0.5023569504017492 4:2.0 5:-0.0669574469987132 6:1.9372082287889543 7:-0.1399594176524683 8:0.15384615384615385 9:0.4 10:0.011764705882352941 
-0.96110874363824 1:3.0 2:2.0 3:-0.7269114200543783 4:3.0 5:1.2721914929755553 6:0.19868802346553374 7:1.2596347588722134 8:0.5 9:0.6 10:0.036585365853658534 
-0.16847154719117868 1:2.0 2:3.0 3:-0.11836272180877062 4:2.0 5:-0.0669574469987132 6:-1.0431121231940523 7:-0.1399594176524683 8:2.0 9:0.4 10:0.016260162601626018 
-0.8480925583495312 1:2.0 2:5.0 3:1.275213797173671 4:2.0 5:-0.0669574469987132 6:-1.2914721525259696 7:-0.1399594176524683 8:0.0 9:0.4 10:0.010471204188481676 
-0.9994673609944724 1:2.0 2:3.0 3:-0.4895774277385913 4:2.0 5:-0.0669574469987132 6:-0.7947520938621352 7:-0.1399594176524683 8:1.0 9:0.4 10:0.024390243902439025 
1.0 1:2.0 2:3.0 3:0.05203091369999953 4:2.0 5:-0.0669574469987132 6:-0.04967200586638349 7:-0.1399594176524683 8:0.4 9:0.4 10:0.014285714285714285 
-0.7258470693276888 1:2.0 2:2.0 3:-0.6599710632473614 4:2.0 5:-0.0669574469987132 6:-0.04967200586638349 7:-0.1399594176524683 8:0.4 9:0.4 10:0.021505376344086023 
-0.001030314848161989 1:2.0 2:8.0 3:2.8148420037350586 4:2.0 5:-0.0669574469987132 6:1.1921281407932027 7:-0.1399594176524683 8:0.2 9:0.4 10:0.006329113924050633 
-0.18206238583100928 1:2.0 2:5.0 3:0.3975233808162576 4:2.0 5:0.5507394902718676 6:0.8048235232885185 7:0.40287514931213275 8:1.0 9:0.4 10:0.013605442176870748 
-1.0 1:2.0 2:3.0 3:-0.06701242937565818 4:2.0 5:0.5507394902718676 6:-0.08942483592094658 7:0.40287514931213275 8:2.0 9:0.4 10:0.017241379310344827 
-0.899281333670148 1:3.0 2:5.0 3:0.35358080417648174 4:3.0 5:1.7746050242093514 6:1.6990718824979834 7:1.7457923136859084 8:1.0 9:0.6 10:0.018072289156626505 
-1.0 1:2.0 2:2.0 3:-0.4122755315453253 4:2.0 5:0.5507394902718676 6:0.8048235232885185 7:0.40287514931213275 8:1.0 9:0.4 10:0.02247191011235955 
