svm_type c_svc
kernel_type rbf
gamma 0.25
nr_class 2
total_sv 11
rho 0.13939540742611822
label 1 0
nr_sv 5 6
SV
1.0 1:9.0 2:8.0 3:0.0 4:1.0 
1.0 1:9.0 2:11.0 3:0.0 4:2.0 
1.0 1:5.0 2:4.0 3:0.0 4:1.0 
1.0 1:3.0 2:4.0 3:0.0 4:1.0 
1.0 1:1.0 2:3.0 3:0.0 4:3.0 
-0.5313593393083241 1:6.0 2:6.0 3:1.0 4:1.0 
-1.0 1:5.0 2:4.0 3:0.0 4:0.0 
-0.91135502445135 1:7.0 2:7.0 3:0.0 4:1.0 
-0.7783246324581399 1:14.0 2:17.0 3:0.0 4:4.0 
-0.778961003782186 1:15.0 2:15.0 3:0.0 4:2.0 
-1.0 1:3.0 2:3.0 3:0.0 4:1.0 
